{"layers":[{"out_depth":3,"out_sx":32,"out_sy":32,"layer_type":"input"},{"sx":5,"sy":5,"stride":1,"in_depth":3,"out_depth":16,"out_sx":32,"out_sy":32,"layer_type":"conv","l1_decay_mul":0,"l2_decay_mul":1,"pad":2,"filters":[{"sx":5,"sy":5,"depth":3,"w":{"0":0.49313353230512563,"1":-0.28469770081269163,"2":-0.5337538276899559,"3":-0.1459084359387423,"4":-0.4586593672519396,"5":-0.3701894427200119,"6":-0.26617107114318783,"7":-0.2521093816421394,"8":-0.23468721312044624,"9":0.1906083870612231,"10":-0.05806955489391058,"11":0.6224515336514259,"12":0.12553189933619754,"13":0.4336582696614485,"14":0.5685765812245263,"15":0.06697061857851731,"16":-0.07715406730856178,"17":0.055290464519777274,"18":-0.3429431089510946,"19":-0.1880869883349472,"20":0.25284791743110546,"21":-0.2740035113019748,"22":0.11154755294510432,"23":0.2893874823632237,"24":-0.37924562810068646,"25":0.2360959622307572,"26":0.3965311916694339,"27":-0.014717961289508233,"28":-0.05560427024434514,"29":0.32990513536910154,"30":-0.060217618209068305,"31":-0.5171084783912575,"32":0.08314250699591032,"33":0.19230056309386573,"34":-0.013338123037453709,"35":0.4624700132928253,"36":0.13795218208254806,"37":-0.0007564791005084673,"38":0.8332349937312594,"39":-0.40142199945434953,"40":0.13638655600965005,"41":0.41706495356875073,"42":-0.44736711201769874,"43":-0.22924402787330603,"44":0.061795633094137915,"45":0.19870818187357367,"46":-0.32030975927115946,"47":0.055130374528462714,"48":0.28142530457604653,"49":-0.29510692200284017,"50":0.22988969801952538,"51":0.40310944279858,"52":0.052641135609767326,"53":0.8243795145948773,"54":0.3377311341668232,"55":0.12677094396427585,"56":0.303003753850176,"57":-0.02350282816517573,"58":-0.13785697422805543,"59":-0.1594870733332534,"60":0.18785510313850762,"61":-0.2557846841700477,"62":0.16226801020265075,"63":-0.18211210429295832,"64":-0.47109011091221376,"65":-0.08628826801860143,"66":-0.12303617483917367,"67":-0.162680712137311,"68":0.06170614542201489,"69":0.1698843656131597,"70":0.029062399781940893,"71":-0.0645901116742193,"72":0.06189791311608097,"73":-0.16694590053671957,"74":-0.07259337653398334}},{"sx":5,"sy":5,"depth":3,"w":{"0":0.023384249541379746,"1":0.0435182283831358,"2":-0.17067003265988928,"3":-0.20671732162793718,"4":0.24816094717797602,"5":-0.017581602380262226,"6":-0.373694620767709,"7":-0.22620152749506806,"8":0.28568299839982475,"9":0.06267223700833584,"10":0.0078743339132772,"11":0.040823311370571026,"12":0.5025584308696582,"13":0.01005750017538803,"14":-0.2553418064864746,"15":-0.4093284424621776,"16":0.29906460641032717,"17":-0.24396378986666536,"18":-0.5486894222514715,"19":0.18505953833729274,"20":0.4443401953826897,"21":-0.14134998065747814,"22":0.18762148967505352,"23":0.6573041353798461,"24":0.34673514201163586,"25":0.17520438329793903,"26":0.0714032668042467,"27":0.4598362168329873,"28":-0.3653366432892264,"29":-0.962969791546698,"30":-0.5431838798333839,"31":0.33501640630491514,"32":0.2688373246486091,"33":-0.4570999893275883,"34":0.45842116111837505,"35":0.7669902704039468,"36":0.14393948425824896,"37":0.10687590129717882,"38":0.5820481391613798,"39":0.25852798322177406,"40":-0.5829733827709804,"41":-0.6420578320081555,"42":0.6068922622949487,"43":-0.27146796036644977,"44":-1.0541580705107552,"45":-0.5914331025568124,"46":0.4131212342616574,"47":0.6813979694317872,"48":-0.16404671995993336,"49":0.3068857330133578,"50":0.7727950574288173,"51":-0.1505064470468694,"52":-0.3033625742008715,"53":-0.08294242550432343,"54":0.13537729295228568,"55":-0.48302771110617343,"56":-0.6496380513228632,"57":0.862434178569554,"58":-0.1621531698929983,"59":-0.6523166183885277,"60":-0.4955635836367504,"61":0.5086079314202864,"62":0.6100955755291767,"63":-0.4313414273320642,"64":0.11135834703940241,"65":0.27993645292510827,"66":0.10143411838639614,"67":-0.5164687275277389,"68":-0.21370626830658082,"69":0.39823053753261684,"70":0.043010463894995715,"71":-0.26775531887596127,"72":0.40953147051651434,"73":-0.13257479978418052,"74":-0.3091742651795734}},{"sx":5,"sy":5,"depth":3,"w":{"0":-0.037072943437595415,"1":-0.03894992319611107,"2":0.2227837794679956,"3":0.2377594480252596,"4":-0.18357250185315319,"5":0.03260357054049877,"6":-0.0721502268678712,"7":-0.1367944581816216,"8":0.3339795801961416,"9":-0.31227820069975465,"10":-0.003999210031885098,"11":0.5252608898541348,"12":-0.5695734077277494,"13":0.27590620573756347,"14":0.6199386328688635,"15":0.7658773515358981,"16":-0.6554539390603087,"17":-0.5308265376685686,"18":1.1215812604610336,"19":-0.8185439939179072,"20":-0.754858027702223,"21":0.9559198663981905,"22":-0.730477866861445,"23":-0.7404453026923422,"24":0.47984600044954456,"25":-0.4109925971309156,"26":-0.33605047508514013,"27":0.13173794990443732,"28":-0.29624165577538125,"29":-0.18671558514285963,"30":0.5211802797919863,"31":-0.42471920835247695,"32":-0.19817837546367964,"33":0.8303916401185406,"34":-0.7493430427433219,"35":-0.33492224141011284,"36":0.9159416683533403,"37":-0.790402590798914,"38":-0.4581376261355842,"39":0.5878862564001222,"40":-0.3891951254330359,"41":-0.2706044963333056,"42":0.1508380385454119,"43":-0.30320862495483664,"44":0.10121036714367486,"45":-0.12624470568632098,"46":-0.2569061732065114,"47":0.06145305707737102,"48":0.04982667981051027,"49":-0.258493031366214,"50":0.1520266600899199,"51":-0.00017071470741968544,"52":-0.16432504847611876,"53":0.19054997503546453,"54":0.03774758096265637,"55":-0.21828151137460639,"56":0.2571758345651983,"57":-0.3174883938731888,"58":0.02275148986561107,"59":0.20820856456761314,"60":-0.591802377193249,"61":0.27397832795649074,"62":0.4270294210937347,"63":-0.6420943301507158,"64":0.4390959417405491,"65":0.6122181513883794,"66":-0.6979862371128335,"67":0.30036776627765216,"68":0.647946604406887,"69":-0.6018326514153599,"70":0.22659739900441103,"71":0.49636347288445776,"72":-0.5769492751794905,"73":0.019738318445367425,"74":0.45164625193162483}},{"sx":5,"sy":5,"depth":3,"w":{"0":0.7020007280579909,"1":-0.2582080724701898,"2":0.049107731093064114,"3":-0.2491150926228742,"4":-0.7922198886339554,"5":-0.1975643545930796,"6":-0.27587079857003516,"7":0.03183548168691418,"8":-0.07520471792797126,"9":0.11424533754813852,"10":0.3550337390436224,"11":0.12221807675224941,"12":-0.16020840386130705,"13":0.35315469613784906,"14":0.09675814627922286,"15":-0.06529983795146059,"16":-1.0819004197716946,"17":-1.0321352925395118,"18":0.2817176663479261,"19":-0.47324088182257656,"20":-0.08139680739411466,"21":0.5485779440863467,"22":1.152368763175453,"23":1.1592479409556238,"24":-0.35514407818022786,"25":0.09214137855511884,"26":-0.10946386232036857,"27":-0.24466715763546174,"28":0.23712532455211444,"29":-0.2435918890260138,"30":-0.21184708895123913,"31":-1.3570712224502735,"32":-0.9338332890563528,"33":0.6849401646732738,"34":0.15149915439171835,"35":0.40703672840846605,"36":0.436435449362559,"37":0.7657926357193442,"38":0.731275646974754,"39":-0.33788583623900975,"40":-0.16988531107980928,"41":-0.09636394854692092,"42":-0.1411268635169126,"43":0.22962657356431523,"44":-0.35915776465277405,"45":0.24242469232265657,"46":-0.393563107645327,"47":-0.19756897493221384,"48":0.2727066751335663,"49":-0.14206044247915658,"50":0.18485543436357862,"51":-0.2004887915364925,"52":-0.014000666260967918,"53":0.1697398722635045,"54":-0.01374086091148137,"55":0.3352892395018601,"56":0.2625140997108567,"57":-0.37654553081899056,"58":0.2046378621668833,"59":-0.2876660459049601,"60":0.24811774311454318,"61":0.03054602041545326,"62":-0.059653778020078735,"63":-0.24738864439974265,"64":-0.0729704125521035,"65":0.16757844804620348,"66":-0.5583592220078963,"67":0.25855456491650386,"68":0.21148812297087688,"69":-0.08258063314309,"70":0.5102210361237318,"71":0.006805904856288735,"72":-0.17845245548284236,"73":0.21338112267883497,"74":-0.08027587451053983}},{"sx":5,"sy":5,"depth":3,"w":{"0":-0.4341570305157118,"1":0.3183810599038249,"2":-0.1461455928525328,"3":-0.3450242190651001,"4":0.9286607799958392,"5":-0.6192147196898707,"6":-0.7832774135045922,"7":0.6920818091111195,"8":-1.2594883520674474,"9":-0.3890181361549346,"10":0.6668618453052622,"11":-0.46336053262666654,"12":0.2393159727074966,"13":-0.11328446097799384,"14":0.49415549729106684,"15":-0.18839650683327291,"16":0.18791527034489025,"17":0.008607070429060195,"18":-0.05248050950706771,"19":1.2643841300283778,"20":-0.28802966380337497,"21":-0.002179094571275694,"22":1.5743785423488454,"23":-0.3282724492336767,"24":-0.4510949611261571,"25":0.5670099109125252,"26":-0.7082978367533251,"27":-0.2693364703626169,"28":-0.07335938646308768,"29":0.044971962316497985,"30":-0.09484918727815426,"31":0.173302913115191,"32":0.29271434351385167,"33":-0.9911272042835255,"34":0.09463667514375543,"35":-1.303664034598385,"36":0.12088829450393185,"37":1.1295183333959664,"38":-0.3959153993002932,"39":-0.05984582638466581,"40":0.5683313518978846,"41":-0.43194913707465415,"42":-0.10630471357021351,"43":-0.008157431148873908,"44":0.0004392119405135337,"45":0.22838436639077211,"46":-0.0673842472264297,"47":0.7465773032339489,"48":-0.17500302749747404,"49":-0.11819260167227881,"50":0.06232983535914971,"51":-0.1387037541963007,"52":0.34270121925834096,"53":0.031751601356021654,"54":-0.5719151810041403,"55":0.07158425189844615,"56":-0.3159016005028342,"57":0.21216867515460325,"58":-0.12968602541097898,"59":0.19682495175580061,"60":0.28542676346350687,"61":-0.8430643041533319,"62":0.25169541637200726,"63":0.3018937127685624,"64":-0.19543803164224144,"65":0.34165918731305983,"66":-0.18105906324290202,"67":-0.3953373983518158,"68":0.2794790303971786,"69":0.0629036142275371,"70":-0.06330305547096021,"71":0.010466587644961257,"72":0.21701198042570083,"73":-0.24621270543641355,"74":0.4105619625222218}},{"sx":5,"sy":5,"depth":3,"w":{"0":-0.18252419841562523,"1":0.23246853535235854,"2":0.011337910260261996,"3":0.20276236539083148,"4":-0.34567112706818925,"5":0.19707033330953225,"6":0.1119891649790836,"7":-0.4550129183138298,"8":0.1206030304642271,"9":0.35326354180474706,"10":-0.02089547635854343,"11":0.047901611560294974,"12":-0.1952361166278913,"13":0.10084521037740055,"14":0.011445475527791545,"15":-0.1812670070501265,"16":0.12968046692372734,"17":-0.20636068713336236,"18":0.21977943490273952,"19":-0.20630219324978835,"20":0.435013618563901,"21":-0.42610164594649624,"22":-0.7327701548432725,"23":-0.24219942826217947,"24":0.5659096911391622,"25":0.31589108726067755,"26":0.34308397232601134,"27":-0.45122644093766184,"28":-0.17376382067453713,"29":-0.4103961721984266,"30":-0.2253159760195851,"31":0.49453158796592966,"32":0.043394803025144306,"33":0.2336960740959995,"34":0.25862353081698874,"35":0.33747249288350006,"36":-0.7702139864860322,"37":-1.3945128697867653,"38":-0.6857141318910835,"39":1.2436749287827753,"40":1.1444090389879857,"41":1.142109033466331,"42":-0.4714222707473801,"43":-0.03155000612265907,"44":-0.6241395698724929,"45":0.21941730715344954,"46":0.39502738064930226,"47":-0.1312581755239765,"48":0.03585814916802617,"49":0.03939650858845094,"50":0.4596615372188661,"51":-0.9060793903878862,"52":-1.4496246543746367,"53":-0.9055007286916665,"54":1.5956018771383325,"55":1.6117702711889674,"56":1.016463534086723,"57":-0.8588131198944351,"58":-0.36492600137113607,"59":-0.9109705256072212,"60":-0.29639860577949667,"61":0.34667641960159934,"62":0.2174291898846111,"63":0.12338402937274504,"64":-0.09699511389153305,"65":0.10145808815646029,"66":-0.5277786227151865,"67":-1.0123716793597157,"68":-0.512252172035189,"69":0.9830715041659487,"70":0.9711772290374521,"71":0.7797936199977459,"72":-0.27214969165540337,"73":-0.23113633585172408,"74":-0.5457941976759879}},{"sx":5,"sy":5,"depth":3,"w":{"0":0.4114636316319549,"1":0.38698555303280574,"2":-0.1627124778067881,"3":0.39112580321006774,"4":0.3027327292829121,"5":0.1328536283439694,"6":0.6428915632207316,"7":0.6005605855022452,"8":0.38786317718958635,"9":0.26948578840319515,"10":-0.12915590152600853,"11":0.03344821134834113,"12":0.43664761463284074,"13":-0.022990576953074524,"14":-0.23035123459205542,"15":0.22482195882552372,"16":-0.1483195106243792,"17":-0.15921238996936393,"18":-0.15781460349722268,"19":-0.06140035857648694,"20":0.03928569371308463,"21":-0.21615613686252466,"22":0.01664618905480554,"23":0.3144053551791808,"24":-0.3190163830223598,"25":-0.036155384998519176,"26":0.33252419932929395,"27":0.19911090156012354,"28":0.3704538078990913,"29":0.2773468911348815,"30":-0.20582528425895932,"31":-0.5096505657258742,"32":-0.4688356217398709,"33":-0.4838510188907795,"34":-0.2940827415767128,"35":-0.38829340255838357,"36":-0.28434475431251205,"37":0.10409611751776197,"38":0.24654551267972938,"39":-1.0112126916838675,"40":-0.5483711322329733,"41":-0.028751761360238243,"42":-0.7270837457130462,"43":-0.2955949846579916,"44":0.02840836135017016,"45":0.2646659437406604,"46":0.019377901267517633,"47":-0.17217325446392773,"48":-0.1253146836378295,"49":0.014466101545136745,"50":0.01673538592495526,"51":-0.0621179869695196,"52":0.3800818132661411,"53":0.5188572888471426,"54":-0.28548622933660955,"55":0.20972130126936284,"56":0.3382189975381144,"57":-0.08981436839353557,"58":-0.11881907785660403,"59":0.013850957686595888,"60":0.08447752031453164,"61":0.03731084239409939,"62":-0.06176046588198439,"63":-0.04316096260230886,"64":-0.2953419326030297,"65":-0.256364902205004,"66":0.071070259769188,"67":0.12486137346862201,"68":0.2426581691667656,"69":-0.20059777676750323,"70":-0.05771978278740386,"71":0.11867388401668658,"72":-0.29536204851953474,"73":0.1351431449146423,"74":0.11228554150899954}},{"sx":5,"sy":5,"depth":3,"w":{"0":0.06219272881171214,"1":0.01025988943941005,"2":0.04731252524722601,"3":0.006341248104006033,"4":0.0177682352902969,"5":-0.07967238722452376,"6":0.7334761165698285,"7":0.47460121154817486,"8":0.36400351275142917,"9":-0.3322453436066815,"10":-0.006959264589916718,"11":-0.5029065337284915,"12":-0.7005042653181678,"13":0.4735081654749093,"14":0.09340070319662303,"15":-0.24011223555589375,"16":-0.39835967448921583,"17":-0.2832579420899435,"18":-0.5011416385644986,"19":-0.9607666276313811,"20":-0.2744082789522344,"21":0.0667498990893945,"22":-0.11609420159612772,"23":0.1952651981713877,"24":1.4621220582477115,"25":1.469503506503734,"26":1.368073873615451,"27":-0.6175805998239663,"28":-0.4727081724481162,"29":-0.7716908517337644,"30":0.5451267943396428,"31":0.3474633036857324,"32":0.21441932855483384,"33":0.11797076055041443,"34":-0.025897830725740523,"35":0.18076620160788448,"36":-1.9568934860817953,"37":-2.168536058224752,"38":-1.4526868846387735,"39":0.3491813452988872,"40":0.07796442147598634,"41":0.34723953315023814,"42":0.8760876340907413,"43":0.7774938605862296,"44":0.6366726970032425,"45":-0.049078557701704766,"46":-0.0457524327145168,"47":-0.43022430272708817,"48":1.0758715399281502,"49":1.0075301045780927,"50":0.8152181790508388,"51":0.16317082953147397,"52":0.14247582302884945,"53":0.2070913244004766,"54":-1.212420436475601,"55":-1.2963309222543398,"56":-0.885211443195441,"57":0.21656162804753634,"58":-0.05737149996170442,"59":0.289897628329485,"60":-0.23570112535898993,"61":0.17764781688436454,"62":0.11450039211807912,"63":-0.1448349873000949,"64":-0.2835583657846593,"65":-0.5795185376452343,"66":0.7357071335900325,"67":0.7108720021177191,"68":0.4590121120970858,"69":-0.12226833727076242,"70":-0.43573184913477825,"71":-0.06874720214688722,"72":0.13509700355896714,"73":-0.294197466683915,"74":-0.029770980446186958}},{"sx":5,"sy":5,"depth":3,"w":{"0":-0.14842632525263633,"1":-0.04625931347633563,"2":-0.44609802303707036,"3":-0.44086729749293213,"4":-0.21179513476366288,"5":-0.48746260065876507,"6":-0.07721256693470908,"7":-0.026921457165385347,"8":-0.10971499592734003,"9":0.1361038457881108,"10":0.2329183802332198,"11":-0.02346388066078653,"12":0.15696672066045053,"13":0.13654775356893936,"14":-0.04637604516327662,"15":-0.26034622314810635,"16":-0.008622053008769535,"17":-0.31878438310660134,"18":-0.13074915033521356,"19":-0.18370259898646132,"20":-0.5451482019316711,"21":-0.1522504932729048,"22":-0.18655498989194608,"23":-0.1988107361415752,"24":0.21002256699880026,"25":0.1028447258280172,"26":0.2502379118506891,"27":0.20389988887846933,"28":0.20702350895717636,"29":0.14501168197363334,"30":0.0886720137820389,"31":0.08208620106823439,"32":0.146703332107409,"33":0.3245191287734403,"34":0.2608712170947163,"35":0.1874320566916966,"36":-0.003987462516821665,"37":-0.16092524199926353,"38":-0.15918870386467943,"39":-0.1545707321354136,"40":-0.5006329077794606,"41":-0.0014652215042277044,"42":-0.009615920781953769,"43":-0.010388621697464863,"44":0.2508087353867426,"45":0.2947305083091482,"46":0.22183577455673367,"47":0.267002205833168,"48":0.22191586022166787,"49":0.2836364988487174,"50":0.6030887429602982,"51":0.3702542315084347,"52":0.19281901632580128,"53":0.46753633518480553,"54":-0.3185360465764862,"55":-0.4911427024341069,"56":-0.17337412760831622,"57":-0.4704782391917167,"58":-0.5782906254220683,"59":-0.16976059138600633,"60":0.04915404889387238,"61":0.15766889060532951,"62":0.2569507959078852,"63":-0.066110985028988,"64":-0.023041104496932082,"65":0.32871704330622836,"66":-0.3900455961898576,"67":-0.3080233823698131,"68":0.20155185549067756,"69":-0.48491292181031054,"70":-0.47597550590704235,"71":0.42968604230732255,"72":-0.310289868220094,"73":-0.2643287904217007,"74":0.5957484137538943}},{"sx":5,"sy":5,"depth":3,"w":{"0":0.09178922179009719,"1":0.3511154240778667,"2":-0.08849351082030323,"3":0.31135455480925267,"4":0.40623376564460917,"5":0.08290724562078046,"6":0.11263948180273291,"7":0.09925316328241464,"8":-0.10540392544104268,"9":-0.29034474826326706,"10":-0.4283722601789168,"11":-0.08049005106799517,"12":-0.14702866467525275,"13":-0.1520041240880401,"14":0.053534951627000414,"15":0.04950624380957924,"16":0.018914563129574277,"17":-0.2388617820289323,"18":0.08802746958700879,"19":0.29546680460809743,"20":-0.03764437315986456,"21":0.3548997857654282,"22":0.24756735701166338,"23":0.24082581568486397,"24":0.005074393434539948,"25":-0.15463051243916584,"26":-0.11594994950198972,"27":-0.3114454627734664,"28":-0.45519188166688057,"29":0.17806458115958537,"30":0.20150467260240687,"31":0.08686295022707151,"32":-0.47850594664432594,"33":0.13014258096703893,"34":-0.0273622932363609,"35":-0.13880375248673477,"36":0.2255006409136929,"37":0.16674033850332023,"38":0.2722609951763206,"39":-0.06651473694406143,"40":-0.1524024604502082,"41":0.33457157551912203,"42":-0.4740847006663478,"43":-0.5044807381596944,"44":0.2640549327658714,"45":0.15924417597731425,"46":0.20195009605545233,"47":-0.4547816506825643,"48":0.2284758823392293,"49":0.11494577473628723,"50":-0.3362193896807916,"51":0.2379635208044233,"52":0.10445374203092728,"53":-0.08492495655139366,"54":0.014493659027080328,"55":0.11369112196985746,"56":0.5200007306500872,"57":-0.7296196979846122,"58":-0.37219371549175906,"59":0.32497242928663234,"60":0.15248954235132328,"61":0.12047822880512023,"62":-0.4742162733197651,"63":0.11288345200870452,"64":0.05616411259365659,"65":-0.3472013948442467,"66":0.2910145047242464,"67":0.0669395170809986,"68":-0.0984394527501048,"69":-0.0029583616287188787,"70":0.1815621468041829,"71":0.22069069348539905,"72":-0.5928939387763117,"73":-0.1368629210776884,"74":0.5523196844712464}},{"sx":5,"sy":5,"depth":3,"w":{"0":-0.06799056779213324,"1":0.07115134698103968,"2":-0.4047928393111797,"3":-0.22532538871584462,"4":0.02060438720179644,"5":-0.34684585874526946,"6":-0.02383062920014258,"7":0.12026034335883581,"8":-0.27687520391170845,"9":0.8117156269886745,"10":-0.060949604678302786,"11":-0.4470087811252267,"12":0.5682829851380475,"13":0.0010458568667930787,"14":-0.606948397449848,"15":-0.20609826151719607,"16":0.09737633153923879,"17":0.33339631419558524,"18":-0.299160368192628,"19":0.46267491491049967,"20":0.7192187284105113,"21":-0.1294721894379159,"22":-0.1343341915789695,"23":0.25199654887339656,"24":0.2754081583763043,"25":0.13484743881508773,"26":0.18915180363749953,"27":0.303147761631609,"28":0.06020670480093776,"29":-0.49107800382603706,"30":-0.5797401157974013,"31":0.1249367319444568,"32":0.23075758663874035,"33":-0.6513416410215341,"34":0.10704149539945398,"35":0.35040454691543227,"36":-0.9574876015326443,"37":0.052674311731158066,"38":0.517432822199621,"39":-0.17938126711904465,"40":0.1864808836258449,"41":0.08960064747747652,"42":0.3804052603705162,"43":0.046143190018725674,"44":-0.2879184231809262,"45":-0.4814335773430816,"46":0.11497768729335735,"47":-0.03658971456680828,"48":-0.5899591278244917,"49":0.06081193535090108,"50":0.7140227522800265,"51":-0.7181165994823296,"52":0.004915129433365499,"53":0.2991670881401253,"54":-0.2744747488679809,"55":0.027213374430346438,"56":0.25491688763568576,"57":0.19412139257684274,"58":0.21979095158293363,"59":-0.24312186404803443,"60":0.16907176497069407,"61":-0.08611853364998084,"62":0.19201419340818873,"63":-0.4854873408227505,"64":-0.1358382975157275,"65":0.5061722892416008,"66":-0.40721385740886196,"67":-0.41035732354231313,"68":0.5810307024302688,"69":-0.14424992394222869,"70":-0.16932513048827913,"71":0.13692432717334413,"72":0.3166996124391232,"73":0.05652114099001111,"74":-0.04393105081564956}},{"sx":5,"sy":5,"depth":3,"w":{"0":-0.274015374769855,"1":0.027945032858468354,"2":0.3630914990807902,"3":0.08898500294627262,"4":-0.05233446028449749,"5":-0.3192455546222499,"6":0.5527120355846431,"7":0.1756597289318409,"8":-0.2444718767575241,"9":0.6899185702728332,"10":0.09326081847763405,"11":-0.02181463046616697,"12":-0.021000169905326486,"13":-0.086520245154194,"14":0.18250865464259958,"15":-0.09384046428450468,"16":0.09708913480669391,"17":-0.24761366220298056,"18":0.3606978913920932,"19":-0.24474249938162593,"20":-0.6066512813439073,"21":0.9106745158700853,"22":0.4611164181675282,"23":-0.03878850518162077,"24":0.07703683553882396,"25":-0.06517593207023814,"26":-0.0883197769887923,"27":-0.43331375141768563,"28":-0.13872059147079752,"29":-0.0023322255729425665,"30":0.23303539248445676,"31":-0.5020381648264548,"32":-0.6533334522125152,"33":0.9178513881130579,"34":0.22952581939291383,"35":0.04571268247452084,"36":0.7351321151017612,"37":0.27578960079301795,"38":0.29909377861225295,"39":-0.7572380002460001,"40":-0.8346135811126952,"41":-0.29934808459129786,"42":-0.3008521175044373,"43":-0.3278870902324578,"44":0.33014280701322407,"45":0.4705889768702102,"46":-0.148080784255309,"47":-0.09111861261325618,"48":0.5137145684081985,"49":0.4263247882672598,"50":0.5776484853878903,"51":-0.6579718407852873,"52":-0.5267255131149543,"53":-0.3193804811623502,"54":-0.9308433585111842,"55":-0.759429263873063,"56":-0.22105608520327627,"57":-0.04576669959631914,"58":0.10606345014497567,"59":0.5582247205832093,"60":0.23116221158031927,"61":-0.06327882572683201,"62":-0.15429879457652032,"63":-0.2707223092034622,"64":-0.342428745309735,"65":-0.06994041492770631,"66":-0.8893419488674331,"67":-0.1931995286169931,"68":-0.14281696537022376,"69":-0.009599564073226626,"70":0.3276976963213004,"71":0.6582005333188742,"72":-0.05517574683216473,"73":0.2729135693272865,"74":0.4428067625319808}},{"sx":5,"sy":5,"depth":3,"w":{"0":0.010832294838011071,"1":-0.00013228156374593637,"2":-0.060279737827973474,"3":-0.14227708312533022,"4":-0.2166062052793425,"5":-0.4016325201646077,"6":-0.8775319743669983,"7":-0.9045277745008011,"8":-1.2794955686686278,"9":0.25977930311615494,"10":0.279428316437294,"11":-0.2902038191432003,"12":0.30377913160079145,"13":-0.05474809159515192,"14":-0.012819977145769677,"15":-0.04355849720011068,"16":0.12067917774296147,"17":0.007384399331126598,"18":-0.16407459156942067,"19":0.18085137385949307,"20":-0.1911314216431627,"21":0.9510094027401188,"22":1.4242167435524762,"23":1.0878314482510971,"24":0.9338642678476549,"25":1.2091315322529732,"26":1.1787529189022068,"27":-0.37263531242446785,"28":-0.5129066453662314,"29":0.008669179336047338,"30":-0.1324253337716564,"31":0.3002704712467726,"32":0.045785803483534365,"33":0.21784283907807786,"34":0.5143368492320787,"35":0.16182332602767596,"36":0.2898614284674484,"37":0.5292971804277808,"38":0.4923288048843691,"39":-1.2397382259612328,"40":-1.1019552940839847,"41":-0.8134805462048604,"42":-0.2720311369089125,"43":-0.39789663279885107,"44":-0.0484779453109083,"45":0.035091313486815025,"46":-0.10044792562188282,"47":-0.005003095703942873,"48":-0.10723436813524856,"49":-0.05989836458537983,"50":0.045423475857843225,"51":-0.7624137164796145,"52":-0.8571534606336157,"53":-0.5077126209296049,"54":-0.18539892721450343,"55":-0.3440089346738175,"56":-0.10746429127398788,"57":0.54002553282944,"58":0.3608426845767996,"59":0.6390574867290356,"60":0.17005835975789996,"61":0.01251298885983309,"62":0.020715663810059466,"63":0.2559921466622158,"64":-0.046295890929341874,"65":-0.008757594426718241,"66":0.15398393851652883,"67":-0.2136051509581008,"68":0.05782619972303125,"69":0.43000722949078907,"70":0.27251704918683795,"71":0.2860679031876339,"72":-0.06185640052415029,"73":-0.35802329531032945,"74":-0.2817184012349392}},{"sx":5,"sy":5,"depth":3,"w":{"0":0.12702511596960092,"1":0.11155002711022255,"2":-0.06352218253848745,"3":-0.2758892753579056,"4":0.0006699773015651974,"5":0.3026186767617323,"6":-0.13055285125421395,"7":-0.17281193671987713,"8":0.2082272056693571,"9":-0.0435579037676829,"10":0.07184786275342296,"11":0.2211073928736435,"12":0.09940526235853483,"13":-0.06876834268415796,"14":0.2717061775752143,"15":-0.22629281175294916,"16":-0.014001906128074589,"17":0.2891900460573025,"18":-0.03364049232478934,"19":0.11064695843770989,"20":0.5570258200527886,"21":-0.5469650948684084,"22":0.07343196634505213,"23":0.25222386517670714,"24":-0.5082241073904176,"25":0.012129835415046131,"26":0.0512167003729937,"27":-0.17963935442155737,"28":-0.21046147131721374,"29":-0.1717453459255788,"30":-0.30762194819796984,"31":0.061014100246678735,"32":0.36475671126121995,"33":-0.6846244728108299,"34":-0.33422361277623347,"35":-0.11714933115619335,"36":-0.8784322877440207,"37":-0.5340788357665927,"38":-0.4073606117827116,"39":-0.4339487793447797,"40":-0.1760562907767329,"41":0.19135489283550428,"42":0.04720245107469642,"43":0.09289086247733122,"44":-0.057178680684878504,"45":-0.2907436096926327,"46":-0.18393674239523003,"47":-0.052462731693319394,"48":-0.20102957346390044,"49":-0.12625816981673316,"50":-0.28177210680619624,"51":0.20339883147258436,"52":0.16595346679910317,"53":0.25901992718541894,"54":0.2960353772733137,"55":0.3938146394115123,"56":0.28892154614145277,"57":0.32876155092411424,"58":0.12474499569150647,"59":-0.24473029448570016,"60":0.3782148049001095,"61":-0.12893197552568011,"62":-0.09366076870442391,"63":0.9367577420510038,"64":0.1809897471062829,"65":-0.25738697168582386,"66":0.86901475270227,"67":0.33158105007812766,"68":-0.42676424944331065,"69":0.702229357471817,"70":0.10011030902778531,"71":-0.5158363153703959,"72":0.6771043476230688,"73":-0.02450848475321781,"74":-0.3852299498577576}},{"sx":5,"sy":5,"depth":3,"w":{"0":-0.5283408344689716,"1":-0.3650013965890494,"2":0.24525689021036245,"3":-0.3194451439900463,"4":-0.6514108563670086,"5":0.07035830794680487,"6":0.42056273578708553,"7":-0.020538439768021527,"8":0.506829899375873,"9":0.22845615202742656,"10":-0.4075181657938972,"11":-0.1838466619394455,"12":0.17212367330561995,"13":-0.011795230944235938,"14":0.058044333612400495,"15":0.11325243608564628,"16":0.19445188580450917,"17":0.3974140022521429,"18":-0.4136817636766514,"19":-0.6847579343735324,"20":0.022452579786789488,"21":0.24708363482228132,"22":-0.06151714040528945,"23":-0.11443813033555124,"24":0.6456832918854476,"25":0.06460164718701894,"26":0.4497683476488601,"27":0.5354076431964984,"28":0.11186498577684262,"29":0.1733322178755156,"30":0.19903114302039848,"31":-0.16609300186759682,"32":0.025638959136791557,"33":-0.24247674187550097,"34":-0.15996964316501125,"35":-0.3300340241321145,"36":-0.41431025128569876,"37":-0.49951793404123185,"38":-0.5668587211361318,"39":-0.21925928924571148,"40":-0.3507616927037539,"41":-0.2997009214632561,"42":-0.23977332717144392,"43":-0.6447929121882504,"44":-0.09840748249485347,"45":0.08249117118444844,"46":0.38280897056718904,"47":0.16299897149368966,"48":0.18660564335967775,"49":0.03888697540686977,"50":-0.007320775413046944,"51":-0.03681234891271614,"52":-0.1557704826150459,"53":-0.3221974977391244,"54":-0.18527322745277638,"55":-0.26218209651206775,"56":-0.44797391475985904,"57":-0.2795222234384357,"58":-0.44914793385755986,"59":-0.20407800727745826,"60":0.17838123121349764,"61":0.18280380069205715,"62":-0.09611376505724131,"63":-0.032610196724380265,"64":0.024588092845693348,"65":-0.0901087330801837,"66":-0.27412005201781503,"67":-0.05726836293696735,"68":-0.3567568499363985,"69":0.1589172263050816,"70":-0.02100498390728979,"71":0.19186763893206782,"72":0.25023098046151004,"73":0.023975856672540652,"74":-0.1517101894791904}},{"sx":5,"sy":5,"depth":3,"w":{"0":-0.2824006300196072,"1":-0.05117238221466369,"2":0.12743211368949123,"3":-0.46048540019775697,"4":-0.322326983867645,"5":-0.24847763350447458,"6":-0.3801644545450961,"7":-0.17881632605288905,"8":-0.2881550770197201,"9":-0.017439395957787734,"10":0.06304882148936185,"11":-0.22072087350813252,"12":-0.13648031786486842,"13":-0.034918175209858945,"14":0.08460824859884145,"15":0.4558187992181162,"16":0.25718485108567185,"17":0.43948992084926686,"18":0.43499105235098706,"19":0.3534824010642649,"20":0.4610249991850052,"21":-0.3722221523397802,"22":-0.16422084008381774,"23":-0.35489384704418153,"24":-0.32622668160798174,"25":-0.33683601020827525,"26":-0.671360273952367,"27":-0.22925988289910876,"28":0.02891390809034517,"29":-0.19791340112680444,"30":0.29244102122536253,"31":-0.18640278823064405,"32":-0.013294782153006297,"33":0.5156037917908273,"34":0.40682908433717535,"35":0.4270903695604143,"36":0.5994702750188385,"37":0.40032900476572647,"38":0.30158644559055936,"39":0.023147657992384583,"40":-0.15335048932882203,"41":-0.35189425069194835,"42":0.015855419385629475,"43":-0.1252613390231177,"44":-0.7241925142031012,"45":0.07673386902104457,"46":-0.12335688835386546,"47":-0.04076481654060943,"48":-0.10273861783792948,"49":0.011402895475881417,"50":0.01164002389166656,"51":0.2718989622295956,"52":0.07077081706362416,"53":0.3834259225025693,"54":0.4656054730784895,"55":0.1549279647743634,"56":0.3485735346783394,"57":0.39361623209584956,"58":0.23264145832400873,"59":-0.09491737581422996,"60":-0.3115843613632121,"61":-0.22899135237578913,"62":-0.03211460360705471,"63":-0.3382051474648467,"64":-0.08949084592813249,"65":0.1761593082838448,"66":-0.22794567277208666,"67":-0.17163466197524643,"68":0.13890765505853067,"69":0.011817643675511243,"70":-0.12569960226208463,"71":0.09870667451318894,"72":0.12706978628798382,"73":0.004789653794486554,"74":0.029221800647481897}}],"biases":{"sx":1,"sy":1,"depth":16,"w":{"0":-0.3237411961111567,"1":-0.14608271182165816,"2":-0.5865393480712855,"3":-0.22838725571410323,"4":-0.23565408698116083,"5":-0.14667635937526047,"6":-0.37713337041689565,"7":-0.2104978763157101,"8":-0.4134733645367509,"9":-0.13642213318581106,"10":0.02839843648871101,"11":-0.2619813850803925,"12":-0.24687953522579503,"13":-0.2048836739938386,"14":-1.3701724990279174,"15":-0.29661459781591293}}},{"out_depth":16,"out_sx":32,"out_sy":32,"layer_type":"relu"},{"sx":2,"sy":2,"stride":2,"in_depth":16,"out_depth":16,"out_sx":16,"out_sy":16,"layer_type":"pool","pad":0},{"sx":5,"sy":5,"stride":1,"in_depth":16,"out_depth":20,"out_sx":16,"out_sy":16,"layer_type":"conv","l1_decay_mul":0,"l2_decay_mul":1,"pad":2,"filters":[{"sx":5,"sy":5,"depth":16,"w":{"0":0.1937933733720296,"1":0.10787282372708701,"2":0.0647205373488383,"3":0.02983939759451645,"4":0.18269943779053924,"5":0.06599703077390844,"6":0.18765337858373757,"7":-0.10946638841635001,"8":-0.1404950343847316,"9":0.0677425565771785,"10":0.14523598208347446,"11":0.2129954310192469,"12":0.1736741365533717,"13":0.05270102244216949,"14":-0.24552632635056507,"15":-0.0913364133636705,"16":0.005040192518835539,"17":0.30611883404641677,"18":0.10759580579841953,"19":0.26429627836329245,"20":0.026750970801831614,"21":0.13029621705277777,"22":-0.10477646640666938,"23":-0.02252568106686504,"24":0.04609393426115124,"25":0.027628091623285386,"26":0.0611869100129625,"27":-0.11222049402146488,"28":-0.1711362797306238,"29":0.20249362387284767,"30":0.04731298237338171,"31":-0.18589013945631003,"32":-0.14552880621813666,"33":0.24053444071565735,"34":0.06471363853003678,"35":-0.007138292886020131,"36":0.09683267219178542,"37":0.07188785594205019,"38":-0.1279878440614282,"39":-0.19388727363983316,"40":0.21239454342309824,"41":-0.012703573336979206,"42":0.01638329758407905,"43":0.37024975515607117,"44":0.019092015707029657,"45":-0.05874299453352391,"46":0.3210040361987431,"47":-0.2743157666658794,"48":0.03668472862483986,"49":0.07483439879990078,"50":0.0909992916907519,"51":0.01862396034077056,"52":0.13251644046435015,"53":0.14550454446132038,"54":-0.30596269150449273,"55":-0.2168446219963638,"56":-0.04065994098656171,"57":-0.015581135656806345,"58":0.18226427567816925,"59":0.33266836172259323,"60":-0.10866962936306093,"61":-0.017577746837892406,"62":0.1377043130746719,"63":-0.17694511186314288,"64":-0.037454222111672555,"65":-0.17730767116820756,"66":-0.08907232108853559,"67":0.05476037570198835,"68":0.0899241848690078,"69":0.02177152903504544,"70":-0.09293771107595745,"71":-0.12164476628962391,"72":-0.26834732929265914,"73":-0.09929403757352306,"74":0.06999654411582219,"75":-0.13710831113361532,"76":-0.1475506387474454,"77":-0.07302939022700909,"78":0.0815074051116058,"79":-0.11987209851913457,"80":-0.14927442236039926,"81":0.20674055337378158,"82":0.1546566686736148,"83":0.058360745696569606,"84":0.27076479074557624,"85":-0.11848309290278146,"86":0.09872746375581887,"87":-0.14146781578077697,"88":0.1154900348455429,"89":-0.07285245731650172,"90":-0.20870214025328032,"91":0.14362396991573428,"92":0.3012336043381616,"93":0.16762010828792967,"94":0.3072908964845176,"95":-0.2667145729334504,"96":-0.2513907294237998,"97":0.11197760447221262,"98":0.06885572849365072,"99":-0.09218099433302092,"100":-0.028732750960689748,"101":-0.2042481410776264,"102":-0.17450693303594944,"103":-0.5280111999161305,"104":0.126505493407124,"105":-0.0816787796778758,"106":-0.19028253407054602,"107":0.5445466352808791,"108":0.08991193969835416,"109":-0.0680531966589488,"110":0.3150283294879849,"111":-0.48243607217501305,"112":-0.1665800808766804,"113":-0.18236400058667693,"114":-0.11525600036235,"115":-0.11884451564080757,"116":-0.12544293767721773,"117":0.033927446493318345,"118":-0.18135354433511858,"119":-0.4065325502141566,"120":-0.08278166804867812,"121":0.03509488820804272,"122":-0.21117559605486041,"123":0.3758307500355572,"124":0.004190205305404857,"125":0.2562978737601172,"126":-0.036263269327176946,"127":-0.3061377603147757,"128":0.024386744275021882,"129":-0.009666418165584908,"130":-0.12705139718177003,"131":0.49535060168968065,"132":-0.17957195662217318,"133":-0.13684567393181069,"134":-0.09945027300312054,"135":-0.11275313266033227,"136":-0.1486903472212926,"137":0.030217150042539796,"138":0.17258149332776646,"139":-0.24688842309633796,"140":-0.03753425903311285,"141":0.051459107565924186,"142":-0.19942044328732184,"143":-0.06622963960771341,"144":0.09536600620878175,"145":-0.06582682130599768,"146":-0.11629434559455636,"147":-0.0775002479476127,"148":0.06805602983472142,"149":-0.03780802870539603,"150":0.20735771806124872,"151":-0.1730231779179604,"152":-0.14374535129169247,"153":-0.016807644353455435,"154":0.1601600452348081,"155":-0.18002080877619095,"156":-0.16114714745015726,"157":-0.3536796020534964,"158":-0.16249005347253104,"159":-0.0434547957363345,"160":-0.12076523713724882,"161":0.11011124115703262,"162":0.11469711073628748,"163":0.0011469946882964514,"164":0.293119222056309,"165":-0.2658465044600433,"166":0.08903226185553047,"167":-0.2381358360967313,"168":0.2501536144863882,"169":0.10782895090094678,"170":-0.3182603974797726,"171":0.24248373529205805,"172":0.3571185666927166,"173":0.5899367666357442,"174":0.06279035748862535,"175":-0.24115237324745348,"176":-0.18950902077208512,"177":-0.03406065686210174,"178":-0.059985305587722776,"179":0.14812024473478708,"180":-0.23293998947395061,"181":-0.26313114410161487,"182":-0.14731073435880848,"183":-0.8002331384551561,"184":0.0852807250350657,"185":-0.02678899510986727,"186":-0.17262628341945746,"187":0.43944166123194345,"188":0.2917301555007927,"189":0.41291162550215554,"190":-0.135990425928894,"191":-0.47003710262381826,"192":0.15820768706680646,"193":0.09099775432862671,"194":-0.04147200405003766,"195":0.6956329583914237,"196":-0.26137879225064553,"197":-0.18317172137412366,"198":-0.0798316326298634,"199":-0.4938355730592338,"200":-0.061875101850466435,"201":-0.04194155557300575,"202":0.17515273349631594,"203":-0.031748648485392134,"204":0.04221984489749038,"205":-0.09519555941618484,"206":-0.22497717016314075,"207":-0.3757667551481495,"208":0.0341979843668318,"209":0.15035074730415676,"210":0.030410380822948096,"211":-0.09179336294955687,"212":-0.0400967264394846,"213":0.00011280383038740463,"214":0.03169362119798795,"215":-0.25874213151990605,"216":-0.079502507469682,"217":0.022008235333937184,"218":0.04707515426918647,"219":0.20145641965771632,"220":-0.19953289458879309,"221":-0.26260786794587565,"222":-0.24135690093048737,"223":-0.34342985637849827,"224":0.0723061516375585,"225":0.11984983025933409,"226":-0.16920375155977735,"227":-0.03078515603625062,"228":0.12768079973948285,"229":0.08259411608258675,"230":0.18243591561378844,"231":-0.01224969746746706,"232":-0.1443051143453723,"233":0.09845670615765476,"234":-0.06379401512537962,"235":0.23698420343930782,"236":-0.20036126487433922,"237":-0.2668089523461069,"238":-0.17650763770878589,"239":-0.24189365623115852,"240":-0.19575654945454127,"241":-0.013813551384954015,"242":-0.2540363700833157,"243":0.06400760760664437,"244":-0.2955705729233568,"245":0.04468093308099386,"246":-0.08924834628857381,"247":0.001046777458229886,"248":0.16386368107145327,"249":-0.178150359089331,"250":-0.14261023976148604,"251":0.0983564395728996,"252":0.2826031103135974,"253":-0.1763006885842411,"254":-0.26389250036562034,"255":-0.026579785837000797,"256":0.10094597631435887,"257":-0.1185454622077756,"258":-0.04959322973512319,"259":0.33359163458371077,"260":-0.3096773990812362,"261":-0.19642472995785462,"262":0.06167288075351502,"263":-0.11392861619876672,"264":-0.13771625056468523,"265":-0.09264216816169413,"266":-0.0821910447103473,"267":-0.20864622380799847,"268":0.1229571924753711,"269":-0.1387758393198634,"270":-0.04386434493119772,"271":-0.16970137743567631,"272":0.1368352411628964,"273":0.22589939790625838,"274":0.05485195404091865,"275":-0.18598482723201923,"276":-0.10008593291054155,"277":-0.1522998485084422,"278":0.00016468276739583005,"279":-0.07506444904080821,"280":-0.35505710330712154,"281":-0.05597975795807412,"282":0.05827823210717752,"283":0.07460852703402034,"284":0.1480997844520897,"285":-0.03371385363288412,"286":0.02556325195362624,"287":-0.2296851792801291,"288":0.18877287626689399,"289":0.10040735150795929,"290":0.07048162331307645,"291":-0.26342841846387094,"292":0.010210783708698145,"293":0.0507962111739218,"294":0.021584072109544376,"295":-0.12181554867518014,"296":-0.018465972182882172,"297":-0.029384734025455866,"298":0.08155464342555054,"299":0.15076654179906812,"300":-0.39649042703904763,"301":0.09290512387829834,"302":-0.06072974561811119,"303":-0.25090271964251926,"304":0.2619879407818001,"305":-0.002251028864514728,"306":0.046479104890041034,"307":0.010936787167547484,"308":-0.048868789450587515,"309":-0.054293028940814905,"310":-0.10722336198041206,"311":0.020690758176430128,"312":-0.11733305329878295,"313":-0.04138934559586778,"314":-0.009298456498140208,"315":0.08518545401195793,"316":-0.3227911793021263,"317":-0.2037814950259794,"318":-0.0722585535296949,"319":-0.15293572568356087,"320":-0.18814714256202825,"321":-0.06408159135787933,"322":-0.05236351090266602,"323":0.2817563518193643,"324":0.07007081152195961,"325":-0.09221926127792968,"326":-0.11861194576035824,"327":0.10274061756280055,"328":0.34140124942498257,"329":-0.05774523896224353,"330":0.12279592518913872,"331":-0.2061327938931919,"332":-0.01409683418150873,"333":-0.2123044697575772,"334":0.29612835911305846,"335":-0.040093207096475576,"336":0.13564274737056614,"337":-0.1421557429234553,"338":-0.009924184563341905,"339":-0.0013215853726678498,"340":0.0875693312087349,"341":-0.0801398035923309,"342":-0.008967333536413664,"343":0.4442269437633789,"344":0.10700553374557742,"345":-0.10819817064166525,"346":0.04171687506255615,"347":-0.29690235120162733,"348":-0.15908043442365027,"349":0.006767221197086898,"350":0.18399254017933167,"351":0.1494063261236513,"352":0.4090397300010264,"353":-0.0510620929691302,"354":0.1327569458699538,"355":-0.17905789840280104,"356":0.07786421809283105,"357":0.06102659869449473,"358":0.14899358809386495,"359":0.2106045789895087,"360":-0.004195570643666519,"361":-0.12193945518523042,"362":0.012608284920471939,"363":-0.026784049073282617,"364":0.023645594786533126,"365":-0.039092168879763044,"366":-0.12656692492313285,"367":0.16854316806083194,"368":0.10300372417264339,"369":-0.0296683572649701,"370":-0.06434167466830862,"371":-0.09464420099086705,"372":0.0722106316876986,"373":-0.008660228906515514,"374":0.07135051152664428,"375":0.07415472500895678,"376":-0.0806852952095853,"377":-0.06484211920101789,"378":0.006794184001538903,"379":-0.03664390157524451,"380":0.012918248157050533,"381":0.012649696222013658,"382":0.0141052553560879,"383":-0.16374720211531218,"384":-0.03848398730104876,"385":0.06149820928965055,"386":-0.006563513727795203,"387":-0.03536292325897379,"388":-0.048753922710319884,"389":0.047059164529582455,"390":-0.13244564052984895,"391":0.035183398423719946,"392":-0.018589135258421187,"393":-0.09618595489310583,"394":-0.17149829471257483,"395":0.19093286148696265,"396":0.06507099139128279,"397":-0.022455687477381032,"398":0.05052185994399017,"399":-0.03897659580171243}},{"sx":5,"sy":5,"depth":16,"w":{"0":0.13261844868102826,"1":0.36885895905169735,"2":0.23994013400662456,"3":-0.029484742628178854,"4":0.03679965444297772,"5":0.13970448873272,"6":-0.037468150475152,"7":0.2379435320585598,"8":0.07311874371880196,"9":0.2713505459598514,"10":-0.2073949216902254,"11":-0.02599380941959246,"12":0.052489925967335205,"13":-0.1549914919308163,"14":0.07589586651955281,"15":-0.05018102749334813,"16":-0.015795751101225667,"17":-0.11799076758905265,"18":0.4763351564630409,"19":-0.4028906097579224,"20":-0.0766823085379061,"21":0.04771695717368411,"22":0.0765075781830247,"23":0.04730916598565998,"24":-0.10038223303308873,"25":0.15723945545151724,"26":-0.07072010936888423,"27":-0.15403748898137617,"28":0.0762553491250135,"29":-0.15743753383500297,"30":-0.0492324184652114,"31":0.08470000983013629,"32":0.011220998040728935,"33":0.05282226625069724,"34":0.4701974261862341,"35":-0.48401432901771335,"36":0.018878518369963595,"37":-0.09159409416727454,"38":-0.009374565243495189,"39":0.063759685867957,"40":-0.21949580612488803,"41":-0.10559039162474812,"42":-0.02689870945190921,"43":-0.02333728988115179,"44":0.018547830806105416,"45":-0.026001308845543192,"46":-0.040853680130051,"47":-0.027127771169399822,"48":-0.03657588836653332,"49":-0.18691884496599248,"50":0.29207520914156526,"51":-0.18165558843206228,"52":-0.049350007629809844,"53":-0.19373423954977254,"54":-0.02079929872154166,"55":-0.019001032003793574,"56":-0.17522613489796499,"57":-0.1875324771952645,"58":0.1172264670422085,"59":-0.04039782368715434,"60":-0.012633015562003655,"61":-0.022462507952316184,"62":0.1121530520570876,"63":-0.11502038974358979,"64":0.22202793094246975,"65":0.010803468013645118,"66":0.28263437175303335,"67":0.06558628520811069,"68":-0.1370922693283531,"69":0.007362551666131244,"70":0.04689429065940274,"71":0.09471680024243896,"72":-0.3198585943042545,"73":-0.2980301576266748,"74":-0.04441541818171234,"75":0.2676210718852908,"76":-0.02288569114519398,"77":0.130271526948487,"78":0.1142905994582238,"79":-0.058422999506015635,"80":-0.10086092587600842,"81":0.45066477733721905,"82":-0.13076951117380664,"83":-0.060942603482243105,"84":-0.16554100034981184,"85":0.14867791769808977,"86":-0.1752774747106616,"87":-0.0799945517270809,"88":0.16628042417316027,"89":0.36860834132140013,"90":-0.19262502881131355,"91":-0.03146393467878635,"92":0.023484694970636048,"93":-0.06391623622048749,"94":0.12080613482074844,"95":-0.1038473842475376,"96":-0.19206293588376896,"97":0.09193360316436604,"98":-0.049614671012615165,"99":-0.37619747555265287,"100":0.030510840985835508,"101":0.13480623025461477,"102":0.3483508624203796,"103":-0.09651871363017177,"104":-0.04421594856648006,"105":0.07981993727434213,"106":-0.13020154995066172,"107":-0.08448075112072538,"108":0.16439383803271274,"109":-0.021517798914169595,"110":0.059372674596231766,"111":-0.14416339585049492,"112":-0.2330679388858325,"113":-0.02210449211370745,"114":0.1013782480946162,"115":-0.32078468233072865,"116":0.13575125004794766,"117":0.1596433090520385,"118":0.4953436215627798,"119":0.013720917323222627,"120":0.07993628916662116,"121":-0.05022212123544211,"122":-0.1017643138184384,"123":0.1025296653765674,"124":0.11586224898338975,"125":-0.02354246062966001,"126":0.2101416103764569,"127":0.042157980220770025,"128":-0.3978213277591933,"129":-0.13158386269032576,"130":0.08590964373395425,"131":-0.2132937252621743,"132":0.05284352720681402,"133":-0.24866697101055613,"134":0.2979859359433348,"135":-0.025189078904582947,"136":-0.10296007641653597,"137":-0.2928066540762166,"138":-0.08447520822709212,"139":-0.008439110845133681,"140":0.2315070556596516,"141":-0.01682781975515096,"142":0.09223717097614513,"143":0.0755650536344162,"144":-0.1620001129035596,"145":-0.21830564073289807,"146":0.2091500430701949,"147":-0.1053808931468547,"148":-0.014518176446201469,"149":-0.16705280545883178,"150":0.22233023685130843,"151":-0.15772466363501758,"152":-0.1833719578911776,"153":-0.3064412125477922,"154":0.10753727713746833,"155":-0.0017234899912199938,"156":0.05717241329685014,"157":0.20416912201907447,"158":-0.04615376974924635,"159":0.2015167568326993,"160":-0.04414301304978054,"161":0.05821329377273606,"162":-0.3807591417090936,"163":-0.003352005304495607,"164":-0.07411065492352087,"165":-0.06505825255060195,"166":-0.0412506234662024,"167":-0.12713603424191305,"168":-0.02774173202435818,"169":0.3362910490074122,"170":0.14582911228037934,"171":-0.12131431346098341,"172":0.08643781802897206,"173":0.2176158384752262,"174":-0.15760107167612666,"175":0.22710167001330425,"176":-0.1741027916014294,"177":0.21369791183370893,"178":-0.1927780082727629,"179":-0.327827604835325,"180":-0.05968199226958923,"181":-0.0977752701735065,"182":-0.2764152439595087,"183":-0.4226467567675006,"184":-0.020820993794482975,"185":-0.05166561690469126,"186":-0.031318745392088905,"187":-0.0683264360716291,"188":-0.007692504520711938,"189":0.017731717736270972,"190":-0.03785251248564713,"191":-0.19897904965324034,"192":-0.16935101305311825,"193":0.21556508423642873,"194":-0.05660088391384807,"195":-0.18150918333877836,"196":0.2291913282139095,"197":0.04307651646115965,"198":-0.08683693683373242,"199":-0.2061524243151513,"200":-0.004455971520593356,"201":-0.025473863083166813,"202":-0.0767888637592139,"203":0.0352105229966271,"204":-0.06534671688925735,"205":-0.034209046497075686,"206":0.16043666281772317,"207":-0.024168987993713455,"208":-0.2557014422121357,"209":-0.04031786871251121,"210":-0.0419202077946034,"211":0.18023576705958572,"212":0.1072066259832215,"213":-0.24259880211304047,"214":0.1025685362019254,"215":0.00838689048105466,"216":0.02305310038828547,"217":-0.1753538378973079,"218":-0.16197906499335665,"219":-0.03509979788831081,"220":-0.13264784139129243,"221":-0.0468174140375745,"222":0.26551876785961803,"223":0.040282034203173396,"224":-0.08804673200013845,"225":-0.32071269659227924,"226":-0.03181880801545314,"227":0.1317506960979248,"228":-0.11473484802170153,"229":-0.09060987979007111,"230":0.30764474948384507,"231":0.07843368723049554,"232":-0.2221315174604071,"233":-0.1517346505348822,"234":0.18932563616658274,"235":0.07246356369812372,"236":-0.06617391759621019,"237":0.2162182957248611,"238":0.04754748707009372,"239":-0.10224686287960284,"240":0.08759051762513236,"241":-0.10551434860548939,"242":0.11513848337506125,"243":-0.02708829963134561,"244":-0.1023436430455749,"245":-0.11561356766666153,"246":0.09680910137422376,"247":0.1697687625361282,"248":-0.05461799560465659,"249":0.056977296557792566,"250":0.16812331008972725,"251":-0.0685274373255017,"252":0.32566467520840353,"253":0.2385391808745199,"254":-0.08583034496851476,"255":0.24249004593094095,"256":-0.0863028585824418,"257":0.010982407004530728,"258":0.04099979257866611,"259":-0.20599952873116434,"260":-0.1340456733403808,"261":-0.14614638101414557,"262":-0.2602801366255183,"263":-0.21311372658933414,"264":-0.05993238158762834,"265":-0.07195010345471033,"266":-0.034027156162312645,"267":-0.11287740531017033,"268":0.02691791626511176,"269":0.09661887497339974,"270":-0.13123760394591102,"271":-0.023563608116275992,"272":-0.17717832533801398,"273":0.014266985083944778,"274":0.03446723748730893,"275":-0.3180209968439054,"276":-0.009206886532921172,"277":-0.29281783736352396,"278":-0.27678834730216356,"279":-0.2508087194534546,"280":0.04400438445642627,"281":-0.0847106114446815,"282":0.005883846537328931,"283":-0.15886050278142672,"284":-0.14037371840319038,"285":-0.06033782694115784,"286":-0.19867802215094713,"287":-0.10748231323830193,"288":-0.1870713336130309,"289":-0.08002441031350412,"290":-0.05171895062902336,"291":-0.1981730378332993,"292":0.09190329856924342,"293":-0.05845116573940999,"294":0.016463185667334308,"295":-0.0986026312014816,"296":-0.005833996711526751,"297":-0.14938741145972917,"298":0.031827173243200446,"299":-0.1558418341224385,"300":-0.2525090919816771,"301":-0.02779327820261944,"302":-0.11987227373890066,"303":-0.06292864298644518,"304":-0.008179781304426892,"305":-0.3303769639423685,"306":-0.16172251017920922,"307":-0.07086595856828697,"308":-0.09273098461141058,"309":-0.09361479884927851,"310":0.02042966489205339,"311":0.11017713964439481,"312":-0.06199685812789138,"313":-0.28574905716220833,"314":0.20727937700027735,"315":-0.18332809864345703,"316":-0.1309807018728336,"317":-0.11646169029768348,"318":-0.15158669977374103,"319":-0.0007436453997043763,"320":0.006571170839167648,"321":-0.3645003327779073,"322":0.06533429619553735,"323":0.020193802413694267,"324":-0.09795014755462388,"325":-0.28908296726737037,"326":0.20926805353147457,"327":0.16508358633544298,"328":-0.04588038192893604,"329":-0.09314784943566405,"330":0.04362268444169118,"331":-0.018261645723498462,"332":0.14830306584322253,"333":0.15079627218073527,"334":-0.028485848011133928,"335":0.03967760450002646,"336":0.06768510904724424,"337":-0.33206293869416453,"338":0.05221928701767809,"339":-0.1824990328614291,"340":-0.0817919568796281,"341":-0.19889909528422348,"342":0.05089002957350808,"343":-0.000046969921317346874,"344":0.03596483595070081,"345":-0.07443062175783599,"346":0.06525632418538567,"347":-0.12605683581979177,"348":-0.10571126001093158,"349":-0.06295086991194587,"350":-0.17094757096204877,"351":-0.05950970056954284,"352":0.0832469280475906,"353":-0.3178624101439661,"354":-0.018787931816316866,"355":-0.13167260299411002,"356":0.0172491856037095,"357":-0.12257090542835547,"358":-0.021813031833769838,"359":-0.0065550765785608285,"360":0.07409949222053308,"361":-0.07236118890182816,"362":0.07604316060220007,"363":-0.15083256966397252,"364":-0.1868005137835486,"365":0.04478488369832043,"366":-0.1897197850984631,"367":0.027653698338622933,"368":-0.048436846241980205,"369":-0.13328318381151008,"370":-0.038469150531362024,"371":-0.03632795029263009,"372":0.10315130916327936,"373":-0.0880611455710481,"374":-0.18772324907959684,"375":-0.13326636649641807,"376":0.2191479313816377,"377":-0.2296239245170777,"378":0.16379557492279592,"379":-0.277997623203389,"380":-0.18820682126789312,"381":0.06758153308225642,"382":-0.15498568473749907,"383":-0.013855793276210315,"384":0.20241745314844156,"385":0.03747358743212449,"386":-0.04921897630242234,"387":-0.08964811746626541,"388":0.019463871837944194,"389":-0.07851390526749402,"390":-0.055066497477777566,"391":-0.15650403041345126,"392":0.22509908682395427,"393":-0.2435370390717425,"394":0.27735513878204915,"395":-0.3454678628316417,"396":-0.10257237595275819,"397":0.08769615589098373,"398":-0.11933172701186698,"399":-0.14271471456477577}},{"sx":5,"sy":5,"depth":16,"w":{"0":0.17968618961762722,"1":-0.13517544932379122,"2":0.20000924928135982,"3":-0.050327522045525326,"4":0.10815878959565171,"5":-0.025792975326186057,"6":-0.11738246763004473,"7":-0.07247977473220282,"8":-0.1251998922534095,"9":-0.29634380158376966,"10":-0.10116752733345126,"11":0.16575250413621648,"12":-0.06719077415466745,"13":0.11600607777835113,"14":0.019344252986406647,"15":-0.04202116877322187,"16":-0.10637718601533436,"17":-0.31799393543937393,"18":0.14836812734023497,"19":-0.13926437229948802,"20":0.1619621557724345,"21":-0.134033166048098,"22":-0.06151259955954655,"23":-0.20607183107810245,"24":-0.3310837450871638,"25":-0.2125830713109894,"26":-0.002277874097354857,"27":-0.21573467778844613,"28":0.09068487665238824,"29":0.14777024892461274,"30":-0.24135955834488337,"31":0.060796858554438164,"32":-0.21604230461426824,"33":-0.09248450923396828,"34":0.1345456091582632,"35":-0.20549830070136021,"36":0.19579089859556392,"37":-0.2015617046721011,"38":-0.10448822942735256,"39":0.03193661575969155,"40":-0.16421493840090734,"41":0.026241855001874533,"42":-0.04317101489925944,"43":-0.33081068335546165,"44":0.15501057496907647,"45":-0.17923804549316133,"46":-0.13477480906013617,"47":0.01613752149221485,"48":0.07220368862416653,"49":0.24566237397684826,"50":0.009182475499341466,"51":-0.03714382996100574,"52":0.0016414956342768936,"53":0.09636418294824312,"54":-0.08410117767004592,"55":0.19105489200273792,"56":-0.23351182973719412,"57":0.0467392730100861,"58":-0.04288060089834554,"59":0.12299738529608903,"60":0.004217946537625304,"61":-0.035778622788320565,"62":0.17311959549995265,"63":0.013877603146546453,"64":0.0041662823417961325,"65":0.2098239539437776,"66":0.0015543221591988283,"67":0.024294807801296902,"68":0.053743790779039416,"69":0.20740271769263566,"70":0.24894131066385453,"71":-0.22873588954442325,"72":-0.19143140390791086,"73":-0.09013211943205068,"74":0.06168030438554766,"75":0.013424075422482522,"76":-0.004823655397640015,"77":-0.10675151292470304,"78":0.3347840059384822,"79":0.002595573473462843,"80":0.2670528837872872,"81":0.26902749692065114,"82":0.13357396663799537,"83":-0.011528739408848177,"84":-0.20179683545175622,"85":-0.11760495618427154,"86":-0.08107759046445041,"87":0.01949539553582167,"88":0.12048539657333372,"89":-0.02184655873701113,"90":-0.2569807088495487,"91":0.2444679140452089,"92":0.008712950930035747,"93":0.12838258998365823,"94":0.08527068553048951,"95":0.14399199419732395,"96":-0.13977612820216123,"97":-0.02317926180739572,"98":-0.0482834953675535,"99":-0.07864939459703564,"100":-0.05927741741779897,"101":0.021015542276681325,"102":0.20169372719240136,"103":0.2524628752772118,"104":-0.24460909551335183,"105":-0.40055153358297413,"106":-0.026725047758182068,"107":0.44597075966578914,"108":0.11226846392916523,"109":0.42716878304643646,"110":0.17374919881963832,"111":-0.10496330816449019,"112":-0.4238889743250329,"113":-0.00969968253830822,"114":0.05710046630658695,"115":-0.16113034305658658,"116":0.2759540715000219,"117":-0.09297456410396221,"118":-0.07710170509147359,"119":0.13915985158531985,"120":-0.09124086296410594,"121":-0.004167655506353446,"122":-0.19596590860324326,"123":-0.0799639637501471,"124":0.16400705295032494,"125":-0.005180244104423865,"126":-0.2759447323817251,"127":0.04147172044090512,"128":-0.174676716887523,"129":-0.11902514194789733,"130":0.1394390305442887,"131":-0.11584573727651468,"132":0.2198975209932272,"133":-0.16703314660286842,"134":-0.2982482568109784,"135":0.04725362375879497,"136":-0.17653323893596792,"137":0.346460548864703,"138":-0.25620893675869055,"139":-0.15045834739178518,"140":-0.07990647282762417,"141":-0.08750504201479951,"142":-0.34620636682200956,"143":0.025711466107930767,"144":-0.14181597298432477,"145":0.11207942709006441,"146":0.18803412635680036,"147":0.1150459347566157,"148":0.16577863394117914,"149":-0.04511141759823442,"150":-0.20338429116714216,"151":-0.3014887929910557,"152":0.06034329657640267,"153":-0.012971396642698679,"154":-0.14086019519396886,"155":-0.2655884752245013,"156":0.10688841622503699,"157":0.04216205339320461,"158":0.27426285227749664,"159":-0.2609044777215613,"160":0.06219473769136779,"161":0.14031849741168828,"162":-0.06750705156563948,"163":0.0007823166434789227,"164":-0.36562697149751344,"165":-0.07171026653113104,"166":0.045200485658814744,"167":0.10888197832943709,"168":0.009490159714346164,"169":0.2429224638541055,"170":-0.1373555782400193,"171":0.2563931351502348,"172":-0.2280657819856685,"173":-0.003998906424108235,"174":0.10244003068968985,"175":-0.017278823664794444,"176":-0.3166982577718444,"177":-0.16464719723203142,"178":-0.301792603282522,"179":-0.039183618980634494,"180":-0.6762903402203473,"181":-0.018002959941505418,"182":0.42789509680333504,"183":0.04194809225036007,"184":0.010703735061001324,"185":0.01305176231723961,"186":0.12308979037431746,"187":0.6011227525463697,"188":0.14506724518478312,"189":0.11415864744678104,"190":0.3965987983912203,"191":0.10942120727932168,"192":-0.12934528918458085,"193":0.012955902197657547,"194":-0.38776625527293807,"195":-0.00955582184713134,"196":0.18067131670884912,"197":0.16142476232600017,"198":-0.029910829087225397,"199":0.6378103665483166,"200":-0.08038895799998065,"201":-0.05213165218775084,"202":0.0431532776064316,"203":0.041714547778334374,"204":-0.0345415557159898,"205":-0.09231364886344001,"206":0.4289669653340475,"207":0.17391637813431485,"208":-0.25744055809344624,"209":-0.1779500470590237,"210":0.11464404441262428,"211":0.3503599092978599,"212":0.2628769249550827,"213":-0.04656675188551113,"214":-0.1508549413378273,"215":0.0037718401084412376,"216":-0.07510809892784406,"217":0.019167331270290973,"218":-0.11186766667204569,"219":-0.06964421094705263,"220":-0.3161074982463446,"221":-0.41709547624011784,"222":-0.19795963882913362,"223":-0.23287008636746276,"224":-0.13920727242496317,"225":-0.1458577096499431,"226":0.11861302555482969,"227":0.06729695395200967,"228":0.46158060465985246,"229":-0.045111162747533615,"230":-0.2701811007517364,"231":-0.16368761368683082,"232":-0.04037325028168835,"233":0.09224892476348492,"234":-0.21356239567896343,"235":-0.34714075876307016,"236":0.08390417815498741,"237":0.019975022904078404,"238":-0.34677185998541216,"239":-0.0504129709774843,"240":-0.014149037649207276,"241":0.12851610695539095,"242":0.18844531948166182,"243":-0.10192450060466496,"244":-0.2530168935216554,"245":0.15343465962110164,"246":-0.17886555904881218,"247":0.2894120755370936,"248":0.1790591199662013,"249":-0.1822438834740325,"250":0.08262397623524365,"251":0.10731007669121483,"252":0.20784944401671257,"253":-0.17870230725914185,"254":-0.23909888168476737,"255":-0.11748712918014857,"256":-0.5154403654337472,"257":-0.157212834965761,"258":-0.2704525485712901,"259":-0.0770358643025856,"260":-0.5239020236651966,"261":0.21453527843493755,"262":-0.3848678413849068,"263":0.29104638793252857,"264":-0.12623733943912885,"265":0.21487153286969682,"266":-0.09167092467714008,"267":0.074873417578566,"268":-0.1985778380515926,"269":-0.15266098828062039,"270":-0.3654302140959231,"271":-0.00843580952251663,"272":-0.197993950225803,"273":0.02644999679699654,"274":-0.6348948473574124,"275":-0.24604675312998417,"276":-0.4592370788066606,"277":0.005298480939602252,"278":-0.3181682879720356,"279":0.015997062371114323,"280":0.33831315969975084,"281":0.12342363171512241,"282":0.104186517150619,"283":-0.17913599961317253,"284":-0.2852380600685223,"285":-0.19365222020131398,"286":0.3472415942929076,"287":0.0329316756781578,"288":-0.13899934894714067,"289":-0.13772524740016034,"290":-0.18280440745060908,"291":0.03244630536658738,"292":-0.2180783732960661,"293":0.07228597450135908,"294":-0.14086712950386787,"295":-0.10061065353710545,"296":-0.15344853701747488,"297":-0.163112926175099,"298":0.04512300295409588,"299":0.1713575502710913,"300":-0.12405370877405336,"301":-0.028822926316682155,"302":0.43465708042033335,"303":-0.1275235207363621,"304":-0.1313020379236063,"305":-0.140200342050052,"306":0.36076138365123944,"307":-0.0016014270797170352,"308":0.14065799162253573,"309":0.06327855633505143,"310":-0.19978932624699888,"311":-0.17134357080413673,"312":0.06525083941804477,"313":-0.02536245764884528,"314":-0.12984363686073744,"315":0.011539163928808698,"316":0.31714699453736095,"317":0.07173676066630184,"318":-0.34027645796595796,"319":0.018820406861545496,"320":-0.05390881501927692,"321":0.020086650190539717,"322":-0.050487296980032466,"323":0.20292852889216867,"324":0.2364348368273501,"325":-0.011500299452877368,"326":0.04711972525575703,"327":0.21671250997647137,"328":-0.03070810367547734,"329":-0.14635936667392557,"330":0.30277282414007334,"331":-0.11950858086630713,"332":0.08612290755584721,"333":0.24622314101990672,"334":0.05051024136220802,"335":0.11319108524848887,"336":-0.24885272544828047,"337":0.3956966614477546,"338":-0.14705613158819777,"339":-0.011191623555036992,"340":-0.1492855822413784,"341":0.004870636047759062,"342":-0.43762050555836707,"343":0.16957729689661943,"344":0.0437682166252052,"345":-0.138902127840052,"346":-0.10638646841078417,"347":-0.0116953851913891,"348":-0.2260235942049884,"349":-0.05745023777816176,"350":-0.30278572121762315,"351":-0.08143263189860753,"352":-0.21614646557058698,"353":0.08420925543099508,"354":-0.4142367681540466,"355":0.18547828880349476,"356":-0.6918467651066461,"357":0.19750946624984292,"358":-0.425118331039618,"359":-0.020928850136530577,"360":0.19571790107288353,"361":0.16610770377311876,"362":-0.26476518649735886,"363":0.21432307414732438,"364":-0.3703062116428257,"365":0.0065272844014277395,"366":-0.14324983890816845,"367":-0.2553103457351907,"368":0.0332304241721754,"369":-0.031618038746945236,"370":-0.267973187536276,"371":0.21277372096199407,"372":-0.30000261478292,"373":0.01327683840681484,"374":-0.04944219019106426,"375":0.026183024266175827,"376":-0.057369958604132174,"377":-0.16256124199263491,"378":0.049772794175269586,"379":-0.12187646094109006,"380":-0.11009959126636666,"381":0.028502252315539732,"382":0.547481016188178,"383":-0.04923303062845268,"384":0.3263149582375353,"385":-0.05310208434810057,"386":0.20619316815574756,"387":-0.08302415480704003,"388":0.21079919906464786,"389":-0.05014511968729001,"390":0.06884390280298405,"391":0.07607359969103743,"392":-0.1977073639151208,"393":0.004449511750817953,"394":0.13257110399339306,"395":0.04606457098779124,"396":0.15047759812400377,"397":-0.13558546430413246,"398":-0.2033184778877051,"399":0.1539031346994213}},{"sx":5,"sy":5,"depth":16,"w":{"0":-0.004758801920514696,"1":0.08826147236133898,"2":0.24586028434629453,"3":-0.099935528101546,"4":0.3330042204382294,"5":0.1363125819882787,"6":0.17245357359020455,"7":-0.01724833820445944,"8":0.046844394552939164,"9":0.04738580200435939,"10":-0.04232931174395094,"11":0.2231847008141868,"12":0.00496370995719252,"13":-0.013588058305202646,"14":-0.12535446187520563,"15":0.12193737877011464,"16":-0.23968488836453833,"17":-0.16269487797182325,"18":0.26877060179569007,"19":0.07500321355574686,"20":-0.032958378119600215,"21":0.1298456516374334,"22":-0.08390658239859719,"23":0.16777130512628433,"24":-0.07477699034053517,"25":0.201904311419103,"26":-0.17209505378451026,"27":-0.02196477460458021,"28":0.0741063220598074,"29":0.07213275266038648,"30":-0.5265905744623577,"31":-0.15072410629605623,"32":-0.13091153976552508,"33":0.20175017693272523,"34":-0.25525927059954484,"35":-0.28675488074322475,"36":-0.49032761360759575,"37":-0.0028401020773729507,"38":0.005550247499029925,"39":0.19053243956311597,"40":0.28708321030272077,"41":-0.01935377647898289,"42":0.13818478871555193,"43":-0.3927853796352723,"44":-0.08365731316915662,"45":-0.09762077925195549,"46":-0.07087963916683562,"47":-0.06259046030371715,"48":-0.054829165307794955,"49":0.3709772731889977,"50":-0.11015562108000217,"51":-0.15699920279607055,"52":-0.07417903719541297,"53":0.1434011439788599,"54":0.22798681088214148,"55":0.18707812271056257,"56":-0.01422197377947751,"57":-0.11554476202306484,"58":0.44477181422079287,"59":-0.18391967108511206,"60":0.049084625878163625,"61":0.09213886268132643,"62":0.1239958448684049,"63":0.18244294002788253,"64":0.041625124448718534,"65":-0.00060669003053681,"66":0.4377056150267514,"67":0.03150365840387812,"68":0.2402611946370146,"69":0.008190145171432506,"70":0.08992832455193485,"71":0.045245037913743534,"72":-0.06141574811495795,"73":0.009073752430875158,"74":0.06541154563474458,"75":0.05350745742131827,"76":0.04600302322214489,"77":0.08171400909824839,"78":-0.035191313482780325,"79":0.09237039564679259,"80":-0.030168461709416717,"81":0.11415851999808078,"82":-0.18980132837565503,"83":-0.3198013018495088,"84":-0.18729435854692802,"85":0.15611218432869986,"86":0.1212838504134572,"87":0.05297369740084328,"88":0.31337378295051843,"89":0.15393790342051425,"90":-0.22040793473126605,"91":0.25745201497737075,"92":-0.09088370162430803,"93":-0.019018872881796243,"94":0.38526308349327837,"95":0.01950911235472591,"96":-0.3112855114215557,"97":-0.12964260133514469,"98":-0.14371997194212496,"99":0.04516166518100543,"100":0.3041919168459343,"101":0.44944855740922895,"102":-0.14570786953674514,"103":0.04225114546563138,"104":-0.034837782330447056,"105":0.10064466783425936,"106":-0.03210008049367214,"107":0.26827494890586745,"108":0.07191260387542285,"109":-0.27791193943194215,"110":-0.11279550856024935,"111":0.054752555589145616,"112":-0.4453925658179491,"113":0.003513871284405685,"114":-0.04374964862874224,"115":0.4692553847957974,"116":0.02977435063528118,"117":0.4465079044707039,"118":-0.3101526913550981,"119":0.4189399016836714,"120":-0.04336788067138516,"121":-0.0043947975932901815,"122":-0.08828126763817361,"123":0.36338801071622573,"124":-0.06577529035175335,"125":-0.14155751899071278,"126":-0.6272654679047607,"127":-0.4775714297282747,"128":-0.061003931389629035,"129":0.18712534157181893,"130":-0.030692810143321904,"131":-0.07073974072685131,"132":-0.12207685400851317,"133":0.18330117782344973,"134":-0.1695878208227307,"135":0.17967562709378943,"136":0.07221899690825466,"137":0.0331601866212023,"138":0.01368294168605407,"139":0.1228481136133073,"140":-0.12444243596267963,"141":0.037142482570277996,"142":0.20554360738784985,"143":-0.21180137610235555,"144":-0.09277674503902922,"145":0.04121269984271227,"146":0.014473723721329794,"147":0.008038864576365653,"148":-0.044635931195844754,"149":0.13620296654703218,"150":-0.009831744606910855,"151":0.10591409781645109,"152":-0.08853630998675717,"153":-0.08921231017763581,"154":-0.10812884251030838,"155":0.05792389788314191,"156":0.039367190100645065,"157":0.18230974545807938,"158":-0.06834666116971934,"159":-0.08314826733671779,"160":0.12919807074058964,"161":-0.020002804628751546,"162":-0.17854737176744867,"163":0.109897302723418,"164":0.04288487649670222,"165":-0.3524085572482259,"166":0.2170119988044838,"167":0.22482428340080865,"168":-0.07928649560425399,"169":0.1473914717600231,"170":0.04949571431219663,"171":-0.1676334130209178,"172":-0.16076101939045098,"173":-0.2793544164442082,"174":-0.05451431124887503,"175":0.23822082461152802,"176":-0.054495332907211314,"177":0.015471276844054171,"178":-0.12723014203396327,"179":-0.08774196390932064,"180":-0.4555326315411838,"181":-0.5084646108588716,"182":-0.012589332539482698,"183":0.36397018975199524,"184":0.11726192139308883,"185":0.11492718953979947,"186":-0.06007052436123913,"187":-0.06864160234443002,"188":-0.05879792322160269,"189":-0.02359438978517769,"190":0.6164898469869996,"191":0.4050657990893869,"192":0.020087852942637013,"193":-0.1399142438851283,"194":-0.09599927800495507,"195":0.1874639902522697,"196":-0.01588098363115485,"197":-0.28748580654487793,"198":-0.05722082875722167,"199":0.2320431993770522,"200":-0.22476143459736722,"201":-0.08814675767219321,"202":-0.20827037877437002,"203":-0.024380341689824333,"204":0.1378996615089268,"205":0.39029666693214204,"206":-0.045829768385432575,"207":-0.021602780391428263,"208":0.18644100384256052,"209":0.15620038934920155,"210":-0.11643807870595742,"211":0.48838123167860564,"212":-0.26338643300415293,"213":-0.2164427565328967,"214":-0.10620470232574189,"215":-0.0034193433313416525,"216":0.052246841587804654,"217":-0.06563056491257539,"218":-0.2271845628649714,"219":0.05732868657603105,"220":0.012923296180736702,"221":0.325519478235425,"222":0.07843853713640285,"223":-0.4037991127547699,"224":0.12639926037226593,"225":-0.10849206997485049,"226":-0.1258446816753275,"227":-0.011914040552481193,"228":-0.28932882481662786,"229":0.01395637219882137,"230":-0.057850341206387455,"231":-0.2535374257338552,"232":0.0760380645937864,"233":-0.08790489446371956,"234":-0.07369947061523185,"235":-0.0008581734831458884,"236":0.052058240920059284,"237":-0.13494314338646962,"238":-0.01201518311567652,"239":-0.13571786182421544,"240":0.11911997393798672,"241":-0.15698026048569239,"242":0.14065927966671746,"243":-0.08927256141350477,"244":0.2392791746564344,"245":-0.289503251970266,"246":0.061616336722858836,"247":-0.27218805155775483,"248":-0.023794650297481304,"249":-0.25273619120304885,"250":0.08378086462527565,"251":-0.17729022465291816,"252":-0.10684267717184039,"253":0.1433546475888756,"254":-0.10015500293571122,"255":0.0912100591573125,"256":0.09210514059086158,"257":-0.35710642972923645,"258":0.05678303593918178,"259":-0.4156233663478659,"260":0.09893428606786288,"261":-0.8568260378345961,"262":-0.0055894220397142815,"263":-0.5162549502116778,"264":0.05262361406086735,"265":-0.3187016017216263,"266":0.10550530194416034,"267":-0.2435395264230228,"268":-0.12488643617656917,"269":0.038389881893301475,"270":-0.020052080444503816,"271":0.17074426137116158,"272":0.2772384650180575,"273":-0.3670073914222329,"274":0.045591394634908425,"275":-0.5107584703017407,"276":-0.10739905518256931,"277":-0.6697094736692647,"278":-0.04053721838401054,"279":-0.32920255529077724,"280":0.20804939920194498,"281":-0.033954195650097434,"282":-0.08716823232813625,"283":-0.1528406779001233,"284":0.05493178779922111,"285":-0.03234297088601821,"286":0.08306894288521337,"287":0.30382996993931327,"288":0.21067031652773435,"289":-0.2996768283695271,"290":0.025370314444138484,"291":-0.42810746226708446,"292":-0.11898411557662729,"293":-0.5057458060849285,"294":0.1629433999598567,"295":-0.15817184197826356,"296":0.043024438041810005,"297":-0.0794972034627379,"298":-0.016010502776339593,"299":-0.035471662813373724,"300":-0.02986412843941369,"301":-0.0464898637620205,"302":0.0199918400098289,"303":0.07073754616304835,"304":-0.027703628951008672,"305":-0.04058866380764945,"306":0.04180445871229307,"307":-0.25289577912479416,"308":0.17871597531222713,"309":-0.1567073843839663,"310":0.067038369137996,"311":-0.05923888028220471,"312":0.09612549740512052,"313":0.01914198862244182,"314":-0.08012152329379124,"315":0.04857520775300481,"316":-0.15653135562260617,"317":-0.19616682553649184,"318":0.17118001793165727,"319":0.0009894330166157147,"320":0.2268265682650798,"321":-0.1676497754286881,"322":0.014593864319630435,"323":0.003666228931560298,"324":-0.08660698380783263,"325":0.39846514696903385,"326":0.1508936469637792,"327":0.19748581254286632,"328":-0.003220360877269331,"329":-0.1820115637622022,"330":0.19677298965259868,"331":-0.05221096444436565,"332":0.13791143232306488,"333":0.17418479342650042,"334":0.051510060995530516,"335":0.1470843878811655,"336":0.06834023295119943,"337":-0.2704622483865674,"338":-0.023492324878098,"339":0.06524289378520237,"340":-0.015853932542290217,"341":-0.3028689657351732,"342":0.030783393729683518,"343":-0.2062450358437684,"344":0.10551048079195037,"345":-0.20746014980573163,"346":0.20826370214673928,"347":-0.24924569883341158,"348":-0.2408705733310003,"349":0.09904302312662254,"350":-0.12354382172338457,"351":0.03243339747999921,"352":0.07920300833801612,"353":-0.2187968967410923,"354":0.14940139535747907,"355":-0.5420752145755334,"356":0.10256171592281949,"357":-0.25801568225209437,"358":0.14161476384156244,"359":-0.20526896619779383,"360":-0.024250484789681646,"361":-0.31418887694845127,"362":0.08152693741211049,"363":-0.1611742034786519,"364":0.06220442647252207,"365":0.11606542647101833,"366":-0.20764970936270516,"367":0.05015045363520554,"368":-0.0727485624606654,"369":-0.20198380016243023,"370":0.0900800589594209,"371":-0.47597948830780956,"372":0.07478119265548248,"373":-0.05593394918158107,"374":0.012529421266195124,"375":-0.2689956267411269,"376":-0.13836548253337322,"377":-0.2894488608086493,"378":-0.02689882623478446,"379":-0.20922130916579545,"380":-0.015910809979277168,"381":0.18141169574481392,"382":-0.11922681672801146,"383":0.011933691219957044,"384":-0.026317797641497085,"385":-0.08309025177463288,"386":0.14960514196693084,"387":-0.5470497707464809,"388":0.19311558914576482,"389":0.05380773525215571,"390":0.06425020073394155,"391":-0.30488090250767863,"392":-0.047077539775146525,"393":-0.02918351938457318,"394":-0.06506674275181717,"395":0.07843531805400054,"396":-0.11827032664609848,"397":0.006509656174269319,"398":-0.0955581483986444,"399":0.23451175810541336}},{"sx":5,"sy":5,"depth":16,"w":{"0":0.11358856081661033,"1":-0.0924557298304959,"2":0.19263151106492266,"3":0.10098074209737261,"4":0.10631444149342159,"5":-0.2661452821151129,"6":0.08984201655029046,"7":-0.009947845174448484,"8":-0.01741707126524256,"9":-0.24174221837410365,"10":-0.07183386033113814,"11":-0.18259849429266325,"12":0.20616334672618822,"13":0.5377971771003187,"14":0.22211384361446332,"15":0.08314624926860595,"16":0.0985996573687369,"17":-0.3621801030821565,"18":0.12109939213133533,"19":-0.13814465042496377,"20":0.15197882250765923,"21":-0.42443687962850385,"22":0.09127067475844178,"23":-0.11443340783448072,"24":-0.18330045189624802,"25":-0.3874280874136413,"26":-0.11918894190498701,"27":-0.10170606869934067,"28":0.16155621270458087,"29":0.5211553171587028,"30":0.27575649954731773,"31":0.1330504464134731,"32":0.23261704546679035,"33":0.0028865125155481445,"34":0.20156353266929766,"35":-0.32793056808249127,"36":0.21318347396761142,"37":0.05766907312361693,"38":0.029660917195688197,"39":-0.042945360013292945,"40":0.05055398918309325,"41":0.02090256353645854,"42":0.15245637880280857,"43":-0.11304439310286044,"44":0.15337707489363864,"45":0.008722516503905686,"46":-0.044539931037440444,"47":0.29489831913894216,"48":0.06148976791785757,"49":0.0557293147237139,"50":0.1818255056990588,"51":-0.25949084659255767,"52":0.08592351004434834,"53":-0.18657785690986772,"54":-0.01056332734233265,"55":-0.04119092281372106,"56":-0.0338836372512869,"57":-0.21090940028824695,"58":0.040161249150243064,"59":-0.21766244036113985,"60":0.00869600906443446,"61":-0.2535494155242705,"62":-0.21856494472238525,"63":0.20803849991017961,"64":0.1603598720876653,"65":0.10053061989747887,"66":0.08343662164103352,"67":-0.002253780735064181,"68":-0.08623520974541804,"69":0.05567714150050346,"70":0.19181664252342595,"71":-0.04326061584397036,"72":0.03254419113771729,"73":-0.06609590382282324,"74":-0.1262719198400666,"75":-0.17182195078749876,"76":0.03427177883502831,"77":-0.08481004365949064,"78":0.12358867137233166,"79":-0.17895910373314042,"80":0.28591217762591514,"81":0.22917104538245162,"82":0.0877837472053485,"83":0.007328421442567141,"84":0.00703435062905956,"85":-0.2730992021653218,"86":-0.1062214280504672,"87":-0.3565242186911353,"88":-0.1961643056859833,"89":-0.25896821555256744,"90":-0.026692366411086303,"91":-0.1002004154149342,"92":0.20903290246017986,"93":0.3177892280621075,"94":-0.07026861209828511,"95":-0.390161364455431,"96":-0.048578957535927635,"97":-0.2744566112348931,"98":0.06729722847136074,"99":-0.1396809904888358,"100":0.11283384126736357,"101":-0.40200476973133964,"102":-0.0602781167553765,"103":-0.19992661823208474,"104":-0.10923364605752046,"105":-0.31586046807947954,"106":0.1034112110020579,"107":-0.2898303701591592,"108":0.1978484986361308,"109":0.21099286415970994,"110":-0.07537494879306693,"111":-0.30356411075280393,"112":0.03340088095153764,"113":-0.02090601037321339,"114":0.03492194884892591,"115":-0.1669062993082269,"116":0.19113576561876386,"117":-0.20760716899041992,"118":0.11361062761069812,"119":0.017186715584284074,"120":0.1379387324430282,"121":-0.023930825821555965,"122":0.10989831778765126,"123":-0.1928782838848258,"124":0.08046731100272045,"125":0.048157138927844914,"126":0.12558464286518137,"127":-0.10797320518792483,"128":-0.08635317350976607,"129":-0.19440940034867832,"130":-0.0434636785253006,"131":-0.39322306869844253,"132":0.1045763908617951,"133":-0.3390573950704232,"134":0.12479740547446831,"135":0.07547751385613047,"136":-0.026612702258148383,"137":0.15389426993593472,"138":0.1381138753998569,"139":-0.39874834141189086,"140":-0.31042190024555255,"141":0.024873867720060935,"142":-0.1789518631028864,"143":0.13004899537465778,"144":-0.05603268802374134,"145":0.11470695673222937,"146":-0.07091147331587097,"147":-0.11967327110950288,"148":-0.1356378302041258,"149":-0.2408813527102943,"150":0.08982110694409264,"151":0.24362698580019895,"152":0.17334402222532436,"153":0.04354642051919355,"154":-0.05820441764624664,"155":-0.3877198705065689,"156":-0.13501389194398242,"157":-0.28427719508607463,"158":0.07283194256437749,"159":0.10688227079431523,"160":0.14439719346933164,"161":0.4555904077333134,"162":-0.10463740410022007,"163":0.0564191310715128,"164":-0.14811138972885954,"165":-0.07152360738567595,"166":0.08550440847979757,"167":-0.35317742841012517,"168":-0.033518519107442905,"169":-0.07740707411611947,"170":-0.19706563513923878,"171":-0.012723668070332254,"172":0.04793626949982726,"173":0.06474601574305051,"174":-0.17113169913464693,"175":-0.1901268511458633,"176":-0.05588443127735942,"177":-0.14853714280744032,"178":-0.04417535524825309,"179":0.3913471111015854,"180":-0.1799955268255517,"181":-0.07081589112169599,"182":-0.07761438555156056,"183":-0.26160356769877374,"184":-0.0804621041166411,"185":-0.27166356596270425,"186":-0.04733880754943766,"187":-0.15877000236419067,"188":0.07937881808592538,"189":0.11182405469712248,"190":-0.07200952493771343,"191":0.06095766634976819,"192":0.16615509516500712,"193":0.04989008100939178,"194":0.028425203852404,"195":0.13994930601270447,"196":-0.0758462655290276,"197":-0.04262464428328326,"198":0.0120124980632614,"199":0.04468937201058365,"200":0.21345146729787448,"201":0.2229660176117528,"202":-0.005446717167604538,"203":-0.07170580460326974,"204":0.0019184058426479063,"205":0.07934542590972808,"206":-0.14018824609858122,"207":0.5097790106513789,"208":-0.05717212552755539,"209":0.018756916645234628,"210":0.04209060173993889,"211":-0.11730105657284991,"212":-0.10373945945272602,"213":-0.18402326910880745,"214":0.04729677483699333,"215":0.0582648383477672,"216":0.16821654258503438,"217":0.16788365245213674,"218":0.057748252124173775,"219":-0.030241869008853138,"220":-0.3320286492730701,"221":-0.04713600081084499,"222":-0.002881940259398177,"223":0.19254838112050732,"224":0.0033860783495555137,"225":0.1283418675856692,"226":-0.22063518545735988,"227":-0.09563105005766233,"228":-0.1446755760223767,"229":-0.08952743538626601,"230":-0.04683836834322794,"231":0.11265077716793474,"232":-0.03436534004976018,"233":0.4041200068353271,"234":-0.030125900095740506,"235":-0.04629903130638458,"236":-0.37479151577705866,"237":-0.2746793645578229,"238":0.11544762227412196,"239":0.0789464432902482,"240":-0.22777151988967098,"241":0.2287539166180028,"242":-0.2395518806969261,"243":0.13397877033051953,"244":-0.13664994485488222,"245":-0.016274668810241488,"246":-0.2500378748325184,"247":-0.11005854383009968,"248":-0.10020662341444841,"249":0.05489494705073869,"250":-0.2276548701227458,"251":0.3572696286466259,"252":0.07891751483331022,"253":-0.04368721530142832,"254":-0.09094359111105903,"255":-0.03671074442223564,"256":-0.20295885499303817,"257":-0.29190484832269675,"258":-0.3114731594645342,"259":0.2381570948338742,"260":-0.305187838009663,"261":-0.08603478934428824,"262":-0.15507497637716477,"263":-0.062474928947303214,"264":-0.28291039867740303,"265":-0.20682370353006277,"266":-0.18064683217775493,"267":0.24960480852967376,"268":-0.2760381442715045,"269":0.11194139715168752,"270":0.15461581849358333,"271":0.0619906361554859,"272":-0.09753506812733242,"273":0.05663851415068857,"274":-0.10364619250152382,"275":-0.03362116855950023,"276":-0.2097307251812259,"277":-0.0719298194927328,"278":0.020362468631608566,"279":0.17510006145699508,"280":-0.3906633133170404,"281":0.26885482673504557,"282":-0.2585946279473445,"283":0.29631472144710685,"284":-0.45125973372975414,"285":-0.05132318381249304,"286":0.08041197808076513,"287":0.07691104908624614,"288":-0.09301679456155727,"289":-0.03112196260396683,"290":-0.0577120405079048,"291":0.28087024152004303,"292":-0.2892207318845817,"293":-0.07059906485002737,"294":-0.07836682439404871,"295":-0.023742439391208143,"296":-0.35881318091982123,"297":0.14799520633062924,"298":-0.2079550270452622,"299":0.10899878247112951,"300":-0.34216688629541603,"301":-0.3053019827712524,"302":-0.008616484403280732,"303":-0.17181279959824167,"304":-0.05358499640041357,"305":0.05484878728839869,"306":-0.12270236186647822,"307":0.004280838823861766,"308":-0.15771308814981913,"309":0.011890695181458931,"310":-0.17400722288636744,"311":-0.04041496823305768,"312":-0.3257878336810502,"313":0.3467341171841092,"314":-0.16616334667139415,"315":0.25156052360313536,"316":-0.24181906087198826,"317":-0.053003653432714994,"318":-0.01900711649803813,"319":-0.1931469464386119,"320":-0.34765174356698086,"321":0.13746222051070225,"322":-0.2769707841829154,"323":0.23879468943463586,"324":-0.171243315758406,"325":0.1595477221013328,"326":-0.08039000550566293,"327":0.027484396426087732,"328":0.01678292583686931,"329":0.14926547951860664,"330":0.006720809351742226,"331":0.31010055415342036,"332":-0.29251447902454863,"333":-0.16471305442781675,"334":0.05289191632426339,"335":-0.15338591472050978,"336":-0.15691753501466615,"337":-0.13469285327455835,"338":-0.2534166018099629,"339":0.0321964678696225,"340":-0.2845252338291481,"341":0.1402201612210831,"342":0.055443454658922676,"343":0.13505636900693488,"344":-0.18007829740111586,"345":-0.16828063038845326,"346":0.11650983418700629,"347":0.3796012717505574,"348":0.01912652648822151,"349":0.4707086353084299,"350":-0.01902961972020322,"351":0.17922242888064113,"352":-0.1657265593572099,"353":-0.026982866349398102,"354":-0.1735106674506044,"355":0.005824389057437906,"356":-0.14897325158915203,"357":0.09239356096157135,"358":-0.031233355714252366,"359":0.15316268701631375,"360":-0.1527375676870612,"361":0.04918740964737488,"362":0.02651404014046258,"363":0.29077191259171,"364":-0.13958442920598135,"365":0.1204224573053298,"366":-0.13824816529220663,"367":0.12226002962423656,"368":-0.17332998957945708,"369":-0.030693484638680196,"370":-0.05995766246014442,"371":0.14158189505023883,"372":-0.17001023748668145,"373":0.16135443140864747,"374":-0.08800549145439793,"375":0.059391801288287666,"376":-0.06133174134625734,"377":-0.029304267820598508,"378":-0.041492299011881305,"379":0.14250088604628897,"380":-0.13853265849765797,"381":-0.3590543878688998,"382":-0.1483536248375889,"383":0.09312443899319478,"384":-0.09571907452639734,"385":0.10592591291040698,"386":0.0218875924447804,"387":0.23922162326000554,"388":0.142931424970267,"389":-0.022391902128799886,"390":-0.1362144985396146,"391":0.14405693199549158,"392":0.018404578344715487,"393":0.07434294758281454,"394":-0.050479601272725716,"395":0.06288125598681106,"396":-0.4285013912726458,"397":-0.2017208843320347,"398":-0.07656940194238196,"399":-0.22579234057049244}},{"sx":5,"sy":5,"depth":16,"w":{"0":0.17855913265917076,"1":0.14941027575906846,"2":0.18642726021877115,"3":0.053586997790317975,"4":-0.19143844661100365,"5":-0.19283074608706835,"6":0.17614837272335526,"7":-0.09458252613931638,"8":0.011821412233548774,"9":-0.18763218527153627,"10":0.32040825230811465,"11":0.2122849182203408,"12":0.024464448006148005,"13":-0.140377303668355,"14":0.16828205954566794,"15":-0.37236000875984226,"16":-0.2971089280639365,"17":0.03765111426238532,"18":-0.10235273656466604,"19":0.3554963148494516,"20":-0.2681994701624381,"21":-0.19079761470744167,"22":-0.1210262230825378,"23":0.07522512363288222,"24":-0.043194560575772346,"25":0.1521563706069801,"26":-0.05360176643636056,"27":-0.1661716656564703,"28":-0.41368714353586156,"29":-0.04736126837588413,"30":-0.09441044668328238,"31":0.08352493991980833,"32":-0.07411568705630939,"33":-0.025717436235639247,"34":0.0077494263328258765,"35":0.08423632450090231,"36":-0.16009712540014198,"37":-0.12969581281194045,"38":-0.3495091914616422,"39":0.18211737161819774,"40":0.24114458657463048,"41":0.15791884635953016,"42":-0.395506451031461,"43":-0.15210157888057313,"44":-0.12679559188028988,"45":0.04302209688061763,"46":0.29206882914687987,"47":0.15170609579497882,"48":0.13835711381024665,"49":0.26851382136734603,"50":0.05956194256394899,"51":-0.10010119440700428,"52":0.15318761254275434,"53":0.045100294144365435,"54":-0.04581920616539154,"55":0.05006879381266752,"56":-0.10012849205744709,"57":0.020892023223638992,"58":-0.0035903796226457968,"59":0.14049137379391088,"60":0.14802382878729758,"61":0.36784312679433917,"62":-0.15597167138077636,"63":-0.17783572809841694,"64":0.22017741923428796,"65":-0.0013964334484076939,"66":0.14008756644570192,"67":-0.07374228668010253,"68":0.3025401224101651,"69":0.12544924119631448,"70":0.10182270052799985,"71":0.06996013105953307,"72":-0.02830485271068175,"73":0.314907127301195,"74":0.11948599815140741,"75":-0.19791920444425126,"76":0.17936162244494125,"77":0.3338689052416403,"78":-0.13267863779587527,"79":-0.03788271521654419,"80":0.038252875485859573,"81":0.18622700047857393,"82":-0.004398441267573452,"83":0.11180897471282812,"84":-0.2191889883726884,"85":-0.09595808959666102,"86":0.27633724924168224,"87":-0.18386230730482697,"88":-0.06557351697767151,"89":-0.23623739227245497,"90":0.20784832845977938,"91":0.10185098833910143,"92":-0.26594422581610005,"93":-0.0993539192495396,"94":0.2670377647091828,"95":-0.4116663619254731,"96":-0.08792496053098833,"97":-0.004942698279237214,"98":-0.16926182666990913,"99":0.3731116119724422,"100":-0.3344368349642642,"101":0.0169651629617591,"102":-0.054795924170763025,"103":-0.17395990783996207,"104":-0.22961485476369498,"105":-0.03453536127357434,"106":0.11657408245030837,"107":-0.18898903113662624,"108":-0.6687748393364196,"109":-0.384033580233992,"110":-0.082108585768452,"111":-0.2868185768380941,"112":-0.16978203676762754,"113":-0.10287293809209061,"114":-0.2134461477640636,"115":0.1519195522885647,"116":-0.4156751136056587,"117":-0.0734052428530468,"118":-0.11356272178626071,"119":-0.17506429258157521,"120":0.13405018863476018,"121":0.11970283216974452,"122":-0.2815433777980861,"123":-0.13671124365220835,"124":-0.4622150115832641,"125":-0.5192548951236416,"126":-0.2638179293200154,"127":0.2131806271247076,"128":-0.05312073424201281,"129":0.01029992268484044,"130":-0.12054442844004942,"131":-0.17419669477458485,"132":-0.2627062110013082,"133":-0.12812559670170856,"134":0.056795002145346246,"135":0.11141464335957373,"136":0.2422504689541606,"137":0.048026344108193474,"138":-0.04238886491648271,"139":0.044310527301228524,"140":-0.10254390554397844,"141":-0.23568311161793692,"142":0.14042818827636003,"143":0.21181581453484316,"144":0.23132602807136154,"145":-0.13366384277638182,"146":0.006020005726372013,"147":-0.17250467980339396,"148":0.02421055435484699,"149":-0.24978743879490994,"150":0.07315128053917125,"151":0.022761479890390724,"152":0.10940575306169249,"153":-0.06532717983116842,"154":0.3121311103821811,"155":-0.028884815110528768,"156":0.0727384503387349,"157":0.3363203505401622,"158":-0.26231594550155113,"159":0.10118877882089719,"160":0.0030121022190440516,"161":0.03798543294723126,"162":0.10479736786220564,"163":-0.0261144671448459,"164":0.07438751037080592,"165":-0.003550500385451292,"166":0.1783118112432928,"167":-0.09088199889875033,"168":-0.03202078818503406,"169":0.010034055064240918,"170":0.09090447769542599,"171":0.16034387821411927,"172":-0.17425911744187958,"173":0.3931779899991096,"174":0.40658805501578915,"175":-0.12068486830115814,"176":0.0013058015366507257,"177":0.14698399322331465,"178":0.06846527650193782,"179":0.24643683839130498,"180":-0.3622567231150405,"181":-0.02955496266147189,"182":-0.2850152027109648,"183":-0.0933650344443605,"184":-0.10498757869186488,"185":-0.20925833970692703,"186":0.14042306561641663,"187":-0.11336701098733973,"188":-0.4475391706542079,"189":-0.3832269786737473,"190":0.24221329242532869,"191":-0.42011317457877506,"192":0.1044764539015171,"193":-0.06599273711767255,"194":0.017542177159099226,"195":0.1556128549607347,"196":-0.41365061329529734,"197":-0.08796272259225851,"198":-0.13883267204081118,"199":-0.3381616009542963,"200":-0.17706277889994662,"201":0.1294873717320167,"202":-0.2579985355277987,"203":-0.17926971547422615,"204":-0.4604742687896751,"205":-0.5447888304514861,"206":-0.31160227754368086,"207":-0.05931536887685848,"208":-0.04122567308787642,"209":-0.17503814461682832,"210":-0.16167290962032452,"211":0.07127859369507253,"212":-0.4500275238784525,"213":-0.00632731231669261,"214":-0.16914486472922316,"215":-0.20031579667251873,"216":0.10592761798004237,"217":0.17007193933297288,"218":-0.15361224289815922,"219":-0.05098028335691013,"220":-0.1818753202480211,"221":-0.343062025311636,"222":-0.07033581473241797,"223":0.3887957033247047,"224":0.1977690702097323,"225":-0.2604865267657775,"226":0.014230091953518854,"227":-0.2586390441526844,"228":-0.24585532879920205,"229":-0.028769560898668653,"230":-0.05417602720494492,"231":0.12600208883459943,"232":0.16908908320341992,"233":0.06798581188648485,"234":0.05541637728719807,"235":0.013860323564144818,"236":0.0695372388751053,"237":0.020507567763172065,"238":0.03753867942289543,"239":0.1086620018168972,"240":0.027430765910024968,"241":0.005956216437697504,"242":-0.0845583325008911,"243":-0.06144642894865848,"244":0.15304155799133182,"245":0.05373072154668989,"246":-0.042668765333976455,"247":-0.09035196079936589,"248":0.16319488582383543,"249":-0.07124128210856637,"250":-0.07851837657494579,"251":0.26535618500829267,"252":-0.10620542101574065,"253":0.11276036289313382,"254":0.09853759370611774,"255":-0.15834458585879557,"256":-0.17824628002244963,"257":0.10792515836541676,"258":-0.06628130627459856,"259":-0.006814464425151576,"260":-0.3280636993169134,"261":-0.07398600345525957,"262":-0.25470000181225966,"263":-0.013109536799162744,"264":-0.02340477875690369,"265":-0.021960096817286414,"266":0.05979785597052689,"267":-0.2240862041054141,"268":-0.2752015408527899,"269":-0.2828175760447963,"270":0.024712604722625396,"271":-0.18483324768840279,"272":0.01453165981472084,"273":-0.042015349023833665,"274":0.017956836771703125,"275":0.012109324806317255,"276":-0.350516096095875,"277":-0.05635668197477861,"278":0.027457875739599066,"279":0.04294996908478356,"280":-0.1275374918897469,"281":-0.19627504462285497,"282":-0.1471120574478679,"283":-0.10038339922789222,"284":-0.34656061069155114,"285":-0.4241681745014953,"286":-0.27724809840960984,"287":-0.23844657842777614,"288":-0.07575776019743663,"289":-0.008950338785666598,"290":0.0466377192583262,"291":0.11749839894310192,"292":-0.3550208236631271,"293":-0.027958090693725544,"294":-0.18839714616079695,"295":-0.17880900754203957,"296":-0.11627856801746514,"297":0.020626814930461288,"298":-0.18089319480353822,"299":0.06409962215857881,"300":-0.21257873206204028,"301":-0.28556462280485195,"302":-0.2307382632548551,"303":-0.14759960020516455,"304":0.0018579650092197088,"305":-0.17513056818940304,"306":-0.019577407596410953,"307":-0.1790822872322178,"308":-0.12676294110795666,"309":-0.08446534229963659,"310":-0.11142965729460887,"311":-0.026997217225513206,"312":0.1116703107283851,"313":-0.08844479595326755,"314":-0.21121222523826466,"315":0.21440341485342265,"316":0.09139805474206064,"317":0.07162151908517551,"318":0.10422444526115633,"319":-0.09316291266923489,"320":0.12400190441347211,"321":0.15527024351657365,"322":0.16830639325127367,"323":-0.12707975361618343,"324":0.26402454111307716,"325":0.10027498259645867,"326":-0.06338745034268932,"327":-0.08971035682666892,"328":0.07111212825303077,"329":0.13824226184632807,"330":0.03316865622398069,"331":0.13032457670686143,"332":0.04033118679817795,"333":0.0786208376426633,"334":0.23704526503923654,"335":-0.07858107264505797,"336":-0.01669964603737798,"337":0.2175084007475013,"338":0.30635528996620165,"339":0.09689466892029645,"340":-0.1568266697227821,"341":-0.086602820880691,"342":-0.11556674440759687,"343":0.07946923159901367,"344":0.03825338143180885,"345":0.3064537416864401,"346":0.018229175952362012,"347":-0.20937299162500178,"348":-0.1649558735135655,"349":-0.12974757787524188,"350":0.0967104298003786,"351":-0.05039892740047232,"352":0.04391200415841991,"353":-0.005868677047507701,"354":0.18210480551491653,"355":0.07995367238971703,"356":-0.043166794021491504,"357":0.15867255539221853,"358":0.20730819102243422,"359":0.16461493931837312,"360":-0.04329748465036741,"361":0.0025029867505891733,"362":-0.042879908400232584,"363":0.09580189771276076,"364":-0.051530596643679934,"365":-0.08611513124801143,"366":-0.14474663978506455,"367":0.17660745045985973,"368":0.10734257798627962,"369":0.08802453562211572,"370":0.07413037470987699,"371":-0.06504989390960655,"372":-0.20457132293629257,"373":-0.17305740093272237,"374":0.059386255280266025,"375":0.009257208226814445,"376":0.10776999015323807,"377":-0.08464085251995762,"378":-0.152516282047492,"379":-0.10555011433697804,"380":0.09296406409559173,"381":0.12993735431867628,"382":-0.13631783570454642,"383":-0.0026157055843704824,"384":0.17764239097841142,"385":0.20446504473706245,"386":0.21864904067922777,"387":-0.26407324609842003,"388":-0.0425070337702954,"389":-0.1112604407143028,"390":0.1084542105723088,"391":0.05607202189288094,"392":0.32318878144913876,"393":0.09943692118494234,"394":-0.09210169126416937,"395":-0.047755401115560106,"396":0.1302275612362402,"397":0.07328031605841141,"398":0.08997279978076976,"399":0.22907484878050138}},{"sx":5,"sy":5,"depth":16,"w":{"0":-0.03343184304781729,"1":-0.1714617959566793,"2":-0.028218110538818997,"3":0.0755955360824354,"4":0.04212789350474068,"5":0.14338598787272938,"6":0.3157283827203796,"7":-0.24406756686496728,"8":-0.04009852606106408,"9":-0.37724092734922055,"10":-0.014198139355478059,"11":-0.13341288330876475,"12":-0.07587640591500616,"13":-0.07300863620259965,"14":0.0984461477823655,"15":0.047147719920809156,"16":0.17406654733768875,"17":-0.2852523092050565,"18":0.29824962415283174,"19":-0.2215356658252423,"20":0.18496710185212462,"21":0.32696298376874144,"22":0.26856539717364447,"23":-0.3275349851163219,"24":-0.00767805897727804,"25":-0.2385894946005016,"26":0.02925906404373275,"27":-0.14871314575357097,"28":0.03532375503535034,"29":0.07988966389795123,"30":-0.05192171731843233,"31":-0.04813124094805904,"32":0.10608282786800245,"33":0.2813624839866546,"34":0.10219714155407908,"35":-0.03708033423649664,"36":0.08542734864212702,"37":0.22481570050563487,"38":0.2431691581844293,"39":0.02935058419875818,"40":0.13770570752012543,"41":0.34454635070146544,"42":0.09627591678912546,"43":-0.175198716721679,"44":-0.21386861697155807,"45":-0.1405294219486783,"46":-0.08880744822102085,"47":-0.06127951848369939,"48":-0.09549350157500765,"49":0.11877192708748725,"50":-0.2010150640414583,"51":0.14443630983892866,"52":0.03587329538397923,"53":0.2896215499992166,"54":-0.26530255487816873,"55":0.03785515757937503,"56":0.043104341025014196,"57":0.25809337128397414,"58":0.00776672499726644,"59":0.06703946997791664,"60":-0.20776019158888773,"61":-0.27796567493878865,"62":-0.08754445717744584,"63":-0.30179493161311105,"64":0.03484704445232577,"65":-0.08377234894135484,"66":-0.24026066692711534,"67":0.2014256969142727,"68":-0.020708758577866953,"69":0.018777295298483036,"70":-0.1709102529931957,"71":0.06694632992495697,"72":-0.04121282871107423,"73":-0.12473810785653155,"74":-0.0068072004479697796,"75":0.5440505202554407,"76":0.009005749795661934,"77":0.020887542679769604,"78":0.37696904976143064,"79":-0.24666390070445612,"80":0.022339581688138814,"81":0.04775793403989658,"82":-0.011091555665801243,"83":0.05628903860852772,"84":-0.029571839879233047,"85":0.2721670984350749,"86":0.09320814449829352,"87":-0.13745414487507257,"88":-0.15301577251241863,"89":-0.07252687755299078,"90":-0.03190630438214191,"91":-0.22702000357052846,"92":-0.0717287802518223,"93":0.08074836433439986,"94":-0.15469641181354957,"95":0.057969577724501814,"96":0.08096449759926154,"97":-0.1283732736428568,"98":0.07773726215269122,"99":-0.1758803178896616,"100":-0.02617220632961229,"101":0.20535009688247963,"102":0.16903111368648618,"103":-0.28762168942628213,"104":0.12176207395658997,"105":-0.12972915442425775,"106":0.01835766355050928,"107":-0.2995371980163381,"108":0.12951169010868707,"109":0.14732320855864633,"110":-0.15525193937726878,"111":0.1659442033956098,"112":-0.10355026230616511,"113":0.04444329444184177,"114":0.180282828395585,"115":0.08361750439555164,"116":0.1066165815394706,"117":0.27700828295018537,"118":-0.05345408806661566,"119":-0.16335395573571038,"120":0.10922346816415728,"121":0.2879836858332162,"122":0.12356111772510778,"123":-0.33716507644725435,"124":-0.20913387469759245,"125":-0.04404775052026085,"126":-0.16678580992592282,"127":-0.20782992739077782,"128":-0.06438483828168849,"129":0.13632552782506052,"130":-0.08056014631720412,"131":0.17342839239284652,"132":-0.2548473712631061,"133":0.20396175344912837,"134":-0.22692665185101404,"135":-0.33314171197255177,"136":-0.20119304405195662,"137":0.15978908617555512,"138":0.014594339850053826,"139":-0.26980968917559167,"140":-0.5546031307575601,"141":-0.5082464299554756,"142":-0.1323086331824682,"143":-0.49373207499152405,"144":-0.12008326884680263,"145":0.05583291412138182,"146":-0.1048424438316443,"147":0.35411887734965924,"148":-0.09614471600451908,"149":0.193589955254163,"150":-0.2313809119314152,"151":-0.01024640229022992,"152":0.05547117100054067,"153":0.19584150408532883,"154":-0.07872970730500332,"155":0.02211120109714466,"156":-0.28377439219365796,"157":-0.15430537462549412,"158":0.05480188806108181,"159":-0.13239710774739474,"160":0.07712964225937292,"161":-0.1291346197271211,"162":0.03860653866233511,"163":0.08680107593427275,"164":0.024200918446560464,"165":0.16432188348707266,"166":0.08826949303925104,"167":-0.08291093488152493,"168":-0.1490280375932702,"169":0.12115960976318864,"170":-0.027509418894308395,"171":-0.41270126923667005,"172":0.05913233283486811,"173":-0.0585270593474041,"174":-0.21856504245499916,"175":-0.033919148875218255,"176":0.06333299637409019,"177":-0.31334287780774867,"178":0.40077749138262797,"179":-0.07225018960063455,"180":0.1595902897920399,"181":0.24034244270770205,"182":0.0018932442119389155,"183":-0.2342053240275071,"184":-0.06930849171304836,"185":0.05831254824515008,"186":-0.030326753669199697,"187":-0.3558894740608099,"188":0.019295789907335128,"189":0.18005016916950875,"190":0.08127386263352758,"191":-0.07305026633072309,"192":-0.07719865385095206,"193":0.09235016681828824,"194":0.3365519860158646,"195":-0.14262822971721562,"196":0.051726234880805126,"197":0.25336602782733053,"198":-0.12921177537455508,"199":-0.0794135653942066,"200":-0.23887501534048441,"201":0.2031016781588443,"202":-0.2248073889144584,"203":-0.5090348157428087,"204":-0.1722756018223136,"205":-0.05461174604652894,"206":-0.09270951041887311,"207":-0.19626009776418304,"208":-0.050145226756385226,"209":0.22354512287441394,"210":0.006520672327352839,